<?xml version="1.0"?>
<opencv_storage>
<cascade>
  <stageType>BOOST</stageType>
  <featureType>HAAR</featureType>
  <height>24</height>
  <width>24</width>
  <stageParams>
    <boostType>GAB</boostType>
    <minHitRate>9.9500000476837158e-01</minHitRate>
    <maxFalseAlarm>5.0000000000000000e-01</maxFalseAlarm>
    <weightTrimRate>9.4999998807907104e-01</weightTrimRate>
    <maxDepth>1</maxDepth>
    <maxWeakCount>100</maxWeakCount></stageParams>
  <featureParams>
    <maxCatCount>0</maxCatCount>
    <featSize>1</featSize>
    <mode>BASIC</mode></featureParams>
  <stageNum>20</stageNum>
  <stages>
    <!-- stage 0 -->
    <_>
      <maxWeakCount>4</maxWeakCount>
      <stageThreshold>-1.7344748973846436e+00</stageThreshold>
      <weakClassifiers>
        <_>
          <internalNodes>
            0 -1 45 1.9291363656520844e-01</internalNodes>
          <leafValues>
            -8.4736841917037964e-01 9.3750000000000000e-01</leafValues></_>
        <_>
          <internalNodes>
            0 -1 52 -4.1666269302368164e-02</internalNodes>
          <leafValues>
            -8.7938106060028076e-01 3.1254363059997559e-01</leafValues></_>
        <_>
          <internalNodes>
            0 -1 58 1.2005822360515594e-01</internalNodes>
          <leafValues>
            -4.1760358214378357e-01 9.3436920642852783e-01</leafValues></_>
        <_>
          <internalNodes>
            0 -1 118 -4.2725497041828930e-04</internalNodes>
          <leafValues>
            -8.2976841926574707e-01 4.0987816452980042e-01</leafValues></_></weakClassifiers></_>
    <!-- stage 1 -->
    <_>
      <maxWeakCount>4</maxWeakCount>
      <stageThreshold>-1.3092502355575562e+00</stageThreshold>
      <weakClassifiers>
        <_>
          <internalNodes>
            0 -1 28 4.1251349449157715e-01</internalNodes>
          <leafValues>
            -8.0412369966506958e-01 9.1666668653488159e-01</leafValues></_>
        <_>
          <internalNodes>
            0 -1 66 5.0974893383681774e-03</internalNodes>
          <leafValues>
            -6.4035391807556152e-01 7.0955497026443481e-01</leafValues></_>
        <_>
          <internalNodes>
            0 -1 120 6.9966423325240612e-05</internalNodes>
          <leafValues>
            4.2627617716789246e-01 -5.5030989646911621e-01</leafValues></_>
        <_>
          <internalNodes>
            0 -1 115 -2.2274766117334366e-02</internalNodes>
          <leafValues>
            9.0190911293029785e-01 -2.9104870557785034e-01</leafValues></_></weakClassifiers></_>
    <!-- stage 2 -->
    <_>
      <maxWeakCount>7</maxWeakCount>
      <stageThreshold>-1.5633682012557983e+00</stageThreshold>
      <weakClassifiers>
        <_>
          <internalNodes>
            0 -1 0 4.9586302042007446e-01</internalNodes>
          <leafValues>
            -8.0156660079956055e-01 8.3999997377395630e-01</leafValues></_>
        <_>
          <internalNodes>
            0 -1 55 5.0577059388160706e-02</internalNodes>
          <leafValues>
            -5.4349756240844727e-01 6.4720976352691650e-01</leafValues></_>
        <_>
          <internalNodes>
            0 -1 37 -5.8179209008812904e-03</internalNodes>
          <leafValues>
            8.1687968969345093e-01 -2.7306815981864929e-01</leafValues></_>
        <_>
          <internalNodes>
            0 -1 7 -2.0354855805635452e-02</internalNodes>
          <leafValues>
            8.3820271492004395e-01 -2.2792856395244598e-01</leafValues></_>
        <_>
          <internalNodes>
            0 -1 24 -1.6606447752565145e-04</internalNodes>
          <leafValues>
            -9.0970057249069214e-01 2.6992791891098022e-01</leafValues></_>
        <_>
          <internalNodes>
            0 -1 78 1.9856896251440048e-02</internalNodes>
          <leafValues>
            -2.5169879198074341e-01 8.4218060970306396e-01</leafValues></_>
        <_>
          <internalNodes>
            0 -1 123 2.6454933686181903e-04</internalNodes>
          <leafValues>
            2.6446354389190674e-01 -8.7779754400253296e-01</leafValues></_></weakClassifiers></_>
    <!-- stage 3 -->
    <_>
      <maxWeakCount>6</maxWeakCount>
      <stageThreshold>-1.5616102218627930e+00</stageThreshold>
      <weakClassifiers>
        <_>
          <internalNodes>
            0 -1 3 5.3536105155944824e-01</internalNodes>
          <leafValues>
            -7.9948586225509644e-01 9.1596639156341553e-01</leafValues></_>
        <_>
          <internalNodes>
            0 -1 75 2.1899428218603134e-02</internalNodes>
          <leafValues>
            -4.4393989443778992e-01 6.6093772649765015e-01</leafValues></_>
        <_>
          <internalNodes>
            0 -1 20 1.5972819924354553e-01</internalNodes>
          <leafValues>
            -3.2478091120719910e-01 7.4319952726364136e-01</leafValues></_>
        <_>
          <internalNodes>
            0 -1 64 1.7922740429639816e-02</internalNodes>
          <leafValues>
            -4.7992539405822754e-01 4.9737632274627686e-01</leafValues></_>
        <_>
          <internalNodes>
            0 -1 70 -7.5461238157004118e-04</internalNodes>
          <leafValues>
            -8.6752116680145264e-01 2.8748446702957153e-01</leafValues></_>
        <_>
          <internalNodes>
            0 -1 80 -6.4327684231102467e-04</internalNodes>
          <leafValues>
            -9.1143298149108887e-01 1.9903740286827087e-01</leafValues></_></weakClassifiers></_>
    <!-- stage 4 -->
    <_>
      <maxWeakCount>5</maxWeakCount>
      <stageThreshold>-1.0831811428070068e+00</stageThreshold>
      <weakClassifiers>
        <_>
          <internalNodes>
            0 -1 29 4.6739172935485840e-01</internalNodes>
          <leafValues>
            -7.8461539745330811e-01 8.8135594129562378e-01</leafValues></_>
        <_>
          <internalNodes>
            0 -1 56 1.5091961622238159e-01</internalNodes>
          <leafValues>
            -3.9370962977409363e-01 6.8658953905105591e-01</leafValues></_>
        <_>
          <internalNodes>
            0 -1 101 5.5825631134212017e-03</internalNodes>
          <leafValues>
            -5.8907556533813477e-01 4.0188202261924744e-01</leafValues></_>
        <_>
          <internalNodes>
            0 -1 59 -1.0164119157707319e-04</internalNodes>
          <leafValues>
            3.5821762681007385e-01 -6.1067938804626465e-01</leafValues></_>
        <_>
          <internalNodes>
            0 -1 131 9.8035088740289211e-04</internalNodes>
          <leafValues>
            3.2600176334381104e-01 -8.4914237260818481e-01</leafValues></_></weakClassifiers></_>
    <!-- stage 5 -->
    <_>
      <maxWeakCount>6</maxWeakCount>
      <stageThreshold>-9.9753439426422119e-01</stageThreshold>
      <weakClassifiers>
        <_>
          <internalNodes>
            0 -1 3 6.8524849414825439e-01</internalNodes>
          <leafValues>
            -7.1007370948791504e-01 8.6138612031936646e-01</leafValues></_>
        <_>
          <internalNodes>
            0 -1 27 3.0065649747848511e-01</internalNodes>
          <leafValues>
            -3.7034714221954346e-01 6.1782664060592651e-01</leafValues></_>
        <_>
          <internalNodes>
            0 -1 103 -1.0278066620230675e-03</internalNodes>
          <leafValues>
            -7.8199392557144165e-01 2.7857702970504761e-01</leafValues></_>
        <_>
          <internalNodes>
            0 -1 132 3.9599539013579488e-04</internalNodes>
          <leafValues>
            2.2895252704620361e-01 -7.6761293411254883e-01</leafValues></_>
        <_>
          <internalNodes>
            0 -1 49 -5.9470301494002342e-04</internalNodes>
          <leafValues>
            -6.6230446100234985e-01 2.5243139266967773e-01</leafValues></_>
        <_>
          <internalNodes>
            0 -1 106 -8.2403894339222461e-05</internalNodes>
          <leafValues>
            3.9188811182975769e-01 -4.7900745272636414e-01</leafValues></_></weakClassifiers></_>
    <!-- stage 6 -->
    <_>
      <maxWeakCount>6</maxWeakCount>
      <stageThreshold>-8.4255349636077881e-01</stageThreshold>
      <weakClassifiers>
        <_>
          <internalNodes>
            0 -1 2 6.8528068065643311e-01</internalNodes>
          <leafValues>
            -6.9035530090332031e-01 6.1403506994247437e-01</leafValues></_>
        <_>
          <internalNodes>
            0 -1 12 2.8070844709873199e-03</internalNodes>
          <leafValues>
            -3.9371469616889954e-01 6.1523473262786865e-01</leafValues></_>
        <_>
          <internalNodes>
            0 -1 84 -1.9156123744323850e-04</internalNodes>
          <leafValues>
            -7.2866505384445190e-01 1.9112628698348999e-01</leafValues></_>
        <_>
          <internalNodes>
            0 -1 128 3.5240495344623923e-04</internalNodes>
          <leafValues>
            2.3199923336505890e-01 -6.9646978378295898e-01</leafValues></_>
        <_>
          <internalNodes>
            0 -1 83 7.7106924727559090e-03</internalNodes>
          <leafValues>
            -3.7883895635604858e-01 5.1186162233352661e-01</leafValues></_>
        <_>
          <internalNodes>
            0 -1 57 -4.1433712467551231e-03</internalNodes>
          <leafValues>
            -7.8208214044570923e-01 2.3499843478202820e-01</leafValues></_></weakClassifiers></_>
    <!-- stage 7 -->
    <_>
      <maxWeakCount>7</maxWeakCount>
      <stageThreshold>-1.5835037231445313e+00</stageThreshold>
      <weakClassifiers>
        <_>
          <internalNodes>
            0 -1 129 9.5703592523932457e-04</internalNodes>
          <leafValues>
            -6.2318837642669678e-01 5.9574466943740845e-01</leafValues></_>
        <_>
          <internalNodes>
            0 -1 105 5.2203226834535599e-02</internalNodes>
          <leafValues>
            -6.5217483043670654e-01 3.6138173937797546e-01</leafValues></_>
        <_>
          <internalNodes>
            0 -1 34 8.7795089930295944e-03</internalNodes>
          <leafValues>
            -2.5083100795745850e-01 8.6490142345428467e-01</leafValues></_>
        <_>
          <internalNodes>
            0 -1 38 1.5617068856954575e-02</internalNodes>
          <leafValues>
            -2.8196352720260620e-01 5.9433674812316895e-01</leafValues></_>
        <_>
          <internalNodes>
            0 -1 79 2.9812410939484835e-03</internalNodes>
          <leafValues>
            2.7281108498573303e-01 -8.4233474731445313e-01</leafValues></_>
        <_>
          <internalNodes>
            0 -1 119 -3.9710542187094688e-03</internalNodes>
          <leafValues>
            6.2379831075668335e-01 -2.6477083563804626e-01</leafValues></_>
        <_>
          <internalNodes>
            0 -1 73 -3.6077804863452911e-02</internalNodes>
          <leafValues>
            -8.1635111570358276e-01 2.1661378443241119e-01</leafValues></_></weakClassifiers></_>
    <!-- stage 8 -->
    <_>
      <maxWeakCount>6</maxWeakCount>
      <stageThreshold>-1.0524185895919800e+00</stageThreshold>
      <weakClassifiers>
        <_>
          <internalNodes>
            0 -1 130 2.0042164251208305e-03</internalNodes>
          <leafValues>
            -6.2060892581939697e-01 7.7777779102325439e-01</leafValues></_>
        <_>
          <internalNodes>
            0 -1 107 2.7970127761363983e-02</internalNodes>
          <leafValues>
            -7.5348514318466187e-01 4.0060153603553772e-01</leafValues></_>
        <_>
          <internalNodes>
            0 -1 42 1.0635675862431526e-03</internalNodes>
          <leafValues>
            3.5269379615783691e-01 -7.1519875526428223e-01</leafValues></_>
        <_>
          <internalNodes>
            0 -1 62 -2.3974906653165817e-03</internalNodes>
          <leafValues>
            8.9278757572174072e-01 -2.6776060461997986e-01</leafValues></_>
        <_>
          <internalNodes>
            0 -1 116 4.5375525951385498e-03</internalNodes>
          <leafValues>
            -2.5129717588424683e-01 7.5172746181488037e-01</leafValues></_>
        <_>
          <internalNodes>
            0 -1 104 -5.3697475232183933e-04</internalNodes>
          <leafValues>
            -4.8029765486717224e-01 4.8803946375846863e-01</leafValues></_></weakClassifiers></_>
    <!-- stage 9 -->
    <_>
      <maxWeakCount>10</maxWeakCount>
      <stageThreshold>-1.3134344816207886e+00</stageThreshold>
      <weakClassifiers>
        <_>
          <internalNodes>
            0 -1 26 1.6213911771774292e-01</internalNodes>
          <leafValues>
            -7.2670805454254150e-01 1.7204301059246063e-01</leafValues></_>
        <_>
          <internalNodes>
            0 -1 40 2.9580099508166313e-03</internalNodes>
          <leafValues>
            -2.9038506746292114e-01 7.3797142505645752e-01</leafValues></_>
        <_>
          <internalNodes>
            0 -1 10 -1.0565930046141148e-02</internalNodes>
          <leafValues>
            7.6669055223464966e-01 -2.0518879592418671e-01</leafValues></_>
        <_>
          <internalNodes>
            0 -1 60 -6.4297434873878956e-03</internalNodes>
          <leafValues>
            -7.4159926176071167e-01 2.1743284165859222e-01</leafValues></_>
        <_>
          <internalNodes>
            0 -1 39 4.6525849029421806e-03</internalNodes>
          <leafValues>
            -2.1823126077651978e-01 7.2388195991516113e-01</leafValues></_>
        <_>
          <internalNodes>
            0 -1 86 -2.1280799061059952e-02</internalNodes>
          <leafValues>
            4.9456247687339783e-01 -3.1550601124763489e-01</leafValues></_>
        <_>
          <internalNodes>
            0 -1 53 7.1603059768676758e-03</internalNodes>
          <leafValues>
            2.8488099575042725e-01 -6.1806964874267578e-01</leafValues></_>
        <_>
          <internalNodes>
            0 -1 97 3.7015578709542751e-03</internalNodes>
          <leafValues>
            -2.9615348577499390e-01 5.4727375507354736e-01</leafValues></_>
        <_>
          <internalNodes>
            0 -1 33 -6.1693526804447174e-03</internalNodes>
          <leafValues>
            -8.0443203449249268e-01 1.9962744414806366e-01</leafValues></_>
        <_>
          <internalNodes>
            0 -1 33 1.6502976417541504e-02</internalNodes>
          <leafValues>
            2.3078791797161102e-01 -6.3614553213119507e-01</leafValues></_></weakClassifiers></_>
    <!-- stage 10 -->
    <_>
      <maxWeakCount>7</maxWeakCount>
      <stageThreshold>-1.6757115125656128e+00</stageThreshold>
      <weakClassifiers>
        <_>
          <internalNodes>
            0 -1 8 1.0191547125577927e-01</internalNodes>
          <leafValues>
            -7.8470253944396973e-01 4.8387095332145691e-01</leafValues></_>
        <_>
          <internalNodes>
            0 -1 69 3.8173303008079529e-02</internalNodes>
          <leafValues>
            -4.6962264180183411e-01 4.0765976905822754e-01</leafValues></_>
        <_>
          <internalNodes>
            0 -1 112 -3.7344673182815313e-04</internalNodes>
          <leafValues>
            -6.3877624273300171e-01 2.2872342169284821e-01</leafValues></_>
        <_>
          <internalNodes>
            0 -1 125 5.9239100664854050e-04</internalNodes>
          <leafValues>
            3.4656116366386414e-01 -4.8910072445869446e-01</leafValues></_>
        <_>
          <internalNodes>
            0 -1 81 7.0270448923110962e-02</internalNodes>
          <leafValues>
            -1.7695398628711700e-01 7.9684036970138550e-01</leafValues></_>
        <_>
          <internalNodes>
            0 -1 35 7.9380609095096588e-03</internalNodes>
          <leafValues>
            -2.6037469506263733e-01 5.4595547914505005e-01</leafValues></_>
        <_>
          <internalNodes>
            0 -1 122 -1.4918383676558733e-03</internalNodes>
          <leafValues>
            -6.6927468776702881e-01 2.7631968259811401e-01</leafValues></_></weakClassifiers></_>
    <!-- stage 11 -->
    <_>
      <maxWeakCount>6</maxWeakCount>
      <stageThreshold>-1.2861862182617188e+00</stageThreshold>
      <weakClassifiers>
        <_>
          <internalNodes>
            0 -1 127 6.4351232722401619e-03</internalNodes>
          <leafValues>
            -6.2559241056442261e-01 7.2093021869659424e-01</leafValues></_>
        <_>
          <internalNodes>
            0 -1 99 -1.4673048099211883e-05</internalNodes>
          <leafValues>
            6.9376772642135620e-01 -4.5008802413940430e-01</leafValues></_>
        <_>
          <internalNodes>
            0 -1 54 1.3175816275179386e-04</internalNodes>
          <leafValues>
            -5.7817405462265015e-01 4.5492741465568542e-01</leafValues></_>
        <_>
          <internalNodes>
            0 -1 89 1.5259221981978044e-05</internalNodes>
          <leafValues>
            -4.8081737756729126e-01 5.1687264442443848e-01</leafValues></_>
        <_>
          <internalNodes>
            0 -1 43 2.9480145312845707e-03</internalNodes>
          <leafValues>
            5.1080459356307983e-01 -5.6400018930435181e-01</leafValues></_>
        <_>
          <internalNodes>
            0 -1 95 -1.8445921596139669e-03</internalNodes>
          <leafValues>
            -6.5046089887619019e-01 3.7938436865806580e-01</leafValues></_></weakClassifiers></_>
    <!-- stage 12 -->
    <_>
      <maxWeakCount>4</maxWeakCount>
      <stageThreshold>-9.2076718807220459e-01</stageThreshold>
      <weakClassifiers>
        <_>
          <internalNodes>
            0 -1 41 2.0591620705090463e-04</internalNodes>
          <leafValues>
            -6.9387757778167725e-01 6.0344827175140381e-01</leafValues></_>
        <_>
          <internalNodes>
            0 -1 48 2.4213131517171860e-02</internalNodes>
          <leafValues>
            -4.3663334846496582e-01 8.8675469160079956e-01</leafValues></_>
        <_>
          <internalNodes>
            0 -1 82 -5.4001291573513299e-05</internalNodes>
          <leafValues>
            6.9144493341445923e-01 -5.1707667112350464e-01</leafValues></_>
        <_>
          <internalNodes>
            0 -1 85 -3.2291840761899948e-04</internalNodes>
          <leafValues>
            7.2682034969329834e-01 -4.5154365897178650e-01</leafValues></_></weakClassifiers></_>
    <!-- stage 13 -->
    <_>
      <maxWeakCount>6</maxWeakCount>
      <stageThreshold>-8.0193299055099487e-01</stageThreshold>
      <weakClassifiers>
        <_>
          <internalNodes>
            0 -1 76 -2.1868436597287655e-03</internalNodes>
          <leafValues>
            7.8021979331970215e-01 -6.5467625856399536e-01</leafValues></_>
        <_>
          <internalNodes>
            0 -1 77 2.9494217596948147e-04</internalNodes>
          <leafValues>
            -4.9388578534126282e-01 6.4275383949279785e-01</leafValues></_>
        <_>
          <internalNodes>
            0 -1 114 -1.6726335161365569e-04</internalNodes>
          <leafValues>
            5.9420335292816162e-01 -5.2569645643234253e-01</leafValues></_>
        <_>
          <internalNodes>
            0 -1 87 5.3672476497013122e-05</internalNodes>
          <leafValues>
            -4.6963006258010864e-01 6.9165438413619995e-01</leafValues></_>
        <_>
          <internalNodes>
            0 -1 90 2.7949670766247436e-05</internalNodes>
          <leafValues>
            -3.9130496978759766e-01 7.4613600969314575e-01</leafValues></_>
        <_>
          <internalNodes>
            0 -1 74 -2.1806976292282343e-04</internalNodes>
          <leafValues>
            6.1336070299148560e-01 -4.2416086792945862e-01</leafValues></_></weakClassifiers></_>
    <!-- stage 14 -->
    <_>
      <maxWeakCount>7</maxWeakCount>
      <stageThreshold>-1.7852298021316528e+00</stageThreshold>
      <weakClassifiers>
        <_>
          <internalNodes>
            0 -1 96 1.1775210499763489e-02</internalNodes>
          <leafValues>
            -6.5284973382949829e-01 4.0983605384826660e-01</leafValues></_>
        <_>
          <internalNodes>
            0 -1 46 1.1467338772490621e-03</internalNodes>
          <leafValues>
            -4.5394554734230042e-01 5.2762949466705322e-01</leafValues></_>
        <_>
          <internalNodes>
            0 -1 94 6.0275034047663212e-04</internalNodes>
          <leafValues>
            -4.4256353378295898e-01 4.4654139876365662e-01</leafValues></_>
        <_>
          <internalNodes>
            0 -1 68 3.9571721572428942e-04</internalNodes>
          <leafValues>
            -4.9524801969528198e-01 3.8606449961662292e-01</leafValues></_>
        <_>
          <internalNodes>
            0 -1 50 -3.6008045077323914e-02</internalNodes>
          <leafValues>
            7.3957049846649170e-01 -2.4000616371631622e-01</leafValues></_>
        <_>
          <internalNodes>
            0 -1 9 -3.0423370189964771e-03</internalNodes>
          <leafValues>
            6.3227301836013794e-01 -1.9054165482521057e-01</leafValues></_>
        <_>
          <internalNodes>
            0 -1 61 9.7315839957445860e-04</internalNodes>
          <leafValues>
            -2.8965178132057190e-01 5.9424793720245361e-01</leafValues></_></weakClassifiers></_>
    <!-- stage 15 -->
    <_>
      <maxWeakCount>9</maxWeakCount>
      <stageThreshold>-1.1398050785064697e+00</stageThreshold>
      <weakClassifiers>
        <_>
          <internalNodes>
            0 -1 5 1.1469418182969093e-02</internalNodes>
          <leafValues>
            -6.2831860780715942e-01 6.5088756382465363e-02</leafValues></_>
        <_>
          <internalNodes>
            0 -1 55 5.7740546762943268e-02</internalNodes>
          <leafValues>
            -4.8006722331047058e-01 2.5764536857604980e-01</leafValues></_>
        <_>
          <internalNodes>
            0 -1 17 -6.5500289201736450e-02</internalNodes>
          <leafValues>
            -8.2941538095474243e-01 1.5330825746059418e-01</leafValues></_>
        <_>
          <internalNodes>
            0 -1 14 -5.7483552955091000e-03</internalNodes>
          <leafValues>
            -8.1795370578765869e-01 1.5458355844020844e-01</leafValues></_>
        <_>
          <internalNodes>
            0 -1 30 3.6752736195921898e-03</internalNodes>
          <leafValues>
            3.4454602003097534e-01 -4.0400177240371704e-01</leafValues></_>
        <_>
          <internalNodes>
            0 -1 31 2.4978374131023884e-04</internalNodes>
          <leafValues>
            1.9546480476856232e-01 -6.4720207452774048e-01</leafValues></_>
        <_>
          <internalNodes>
            0 -1 113 -4.9183592200279236e-03</internalNodes>
          <leafValues>
            -6.2891370058059692e-01 1.9234378635883331e-01</leafValues></_>
        <_>
          <internalNodes>
            0 -1 117 2.4208516697399318e-04</internalNodes>
          <leafValues>
            1.3819526135921478e-01 -8.4250158071517944e-01</leafValues></_>
        <_>
          <internalNodes>
            0 -1 18 3.0407458543777466e-02</internalNodes>
          <leafValues>
            -3.1205356121063232e-01 4.2838862538337708e-01</leafValues></_></weakClassifiers></_>
    <!-- stage 16 -->
    <_>
      <maxWeakCount>10</maxWeakCount>
      <stageThreshold>-1.2606018781661987e+00</stageThreshold>
      <weakClassifiers>
        <_>
          <internalNodes>
            0 -1 1 7.6381307840347290e-01</internalNodes>
          <leafValues>
            -6.0206717252731323e-01 2.5619834661483765e-01</leafValues></_>
        <_>
          <internalNodes>
            0 -1 65 3.9639826864004135e-03</internalNodes>
          <leafValues>
            1.3919384777545929e-01 -6.3100367784500122e-01</leafValues></_>
        <_>
          <internalNodes>
            0 -1 72 5.2906326018273830e-03</internalNodes>
          <leafValues>
            1.3672524690628052e-01 -7.9917675256729126e-01</leafValues></_>
        <_>
          <internalNodes>
            0 -1 98 -3.1135303433984518e-03</internalNodes>
          <leafValues>
            -8.3300191164016724e-01 1.6613805294036865e-01</leafValues></_>
        <_>
          <internalNodes>
            0 -1 100 6.7139451857656240e-04</internalNodes>
          <leafValues>
            2.1742360293865204e-01 -5.4421323537826538e-01</leafValues></_>
        <_>
          <internalNodes>
            0 -1 109 1.4686487847939134e-03</internalNodes>
          <leafValues>
            2.6454904675483704e-01 -4.7792130708694458e-01</leafValues></_>
        <_>
          <internalNodes>
            0 -1 91 1.1303683277219534e-03</internalNodes>
          <leafValues>
            3.3443975448608398e-01 -4.6887892484664917e-01</leafValues></_>
        <_>
          <internalNodes>
            0 -1 47 3.1180046498775482e-02</internalNodes>
          <leafValues>
            -3.6086034774780273e-01 4.2990952730178833e-01</leafValues></_>
        <_>
          <internalNodes>
            0 -1 133 3.0110529623925686e-03</internalNodes>
          <leafValues>
            -2.8376910090446472e-01 5.4990619421005249e-01</leafValues></_>
        <_>
          <internalNodes>
            0 -1 11 1.7698490410111845e-04</internalNodes>
          <leafValues>
            2.7200835943222046e-01 -4.8131340742111206e-01</leafValues></_></weakClassifiers></_>
    <!-- stage 17 -->
    <_>
      <maxWeakCount>9</maxWeakCount>
      <stageThreshold>-1.2108463048934937e+00</stageThreshold>
      <weakClassifiers>
        <_>
          <internalNodes>
            0 -1 23 -4.3969685211777687e-03</internalNodes>
          <leafValues>
            2.0967741310596466e-01 -5.9375000000000000e-01</leafValues></_>
        <_>
          <internalNodes>
            0 -1 63 -2.0823067054152489e-02</internalNodes>
          <leafValues>
            3.3503124117851257e-01 -3.8507890701293945e-01</leafValues></_>
        <_>
          <internalNodes>
            0 -1 124 -1.4304763681138866e-05</internalNodes>
          <leafValues>
            2.9306787252426147e-01 -3.2115599513053894e-01</leafValues></_>
        <_>
          <internalNodes>
            0 -1 88 2.0956555381417274e-02</internalNodes>
          <leafValues>
            -1.6974641382694244e-01 6.2555277347564697e-01</leafValues></_>
        <_>
          <internalNodes>
            0 -1 93 -9.8238494247198105e-03</internalNodes>
          <leafValues>
            -6.0306745767593384e-01 2.0209828019142151e-01</leafValues></_>
        <_>
          <internalNodes>
            0 -1 110 -1.5134144574403763e-02</internalNodes>
          <leafValues>
            3.2653659582138062e-01 -4.5265167951583862e-01</leafValues></_>
        <_>
          <internalNodes>
            0 -1 92 -4.2344308458268642e-03</internalNodes>
          <leafValues>
            5.8008676767349243e-01 -2.2652643918991089e-01</leafValues></_>
        <_>
          <internalNodes>
            0 -1 36 -5.4347841069102287e-03</internalNodes>
          <leafValues>
            5.6891411542892456e-01 -1.7573930323123932e-01</leafValues></_>
        <_>
          <internalNodes>
            0 -1 111 -2.9965452267788351e-04</internalNodes>
          <leafValues>
            -6.0370510816574097e-01 1.7030212283134460e-01</leafValues></_></weakClassifiers></_>
    <!-- stage 18 -->
    <_>
      <maxWeakCount>7</maxWeakCount>
      <stageThreshold>-9.3761467933654785e-01</stageThreshold>
      <weakClassifiers>
        <_>
          <internalNodes>
            0 -1 25 7.0556718856096268e-03</internalNodes>
          <leafValues>
            -5.0655019283294678e-01 6.0000002384185791e-01</leafValues></_>
        <_>
          <internalNodes>
            0 -1 13 1.5880053862929344e-02</internalNodes>
          <leafValues>
            -3.0806171894073486e-01 5.2508950233459473e-01</leafValues></_>
        <_>
          <internalNodes>
            0 -1 67 4.2576633859425783e-04</internalNodes>
          <leafValues>
            -4.8190352320671082e-01 2.8542593121528625e-01</leafValues></_>
        <_>
          <internalNodes>
            0 -1 71 2.2137866914272308e-01</internalNodes>
          <leafValues>
            1.2502129375934601e-01 -8.6557614803314209e-01</leafValues></_>
        <_>
          <internalNodes>
            0 -1 16 2.6172432117164135e-03</internalNodes>
          <leafValues>
            3.1806585192680359e-01 -4.4215217232704163e-01</leafValues></_>
        <_>
          <internalNodes>
            0 -1 102 9.5327367307618260e-04</internalNodes>
          <leafValues>
            -2.4989905953407288e-01 5.0047868490219116e-01</leafValues></_>
        <_>
          <internalNodes>
            0 -1 51 5.0669806078076363e-03</internalNodes>
          <leafValues>
            -3.4919396042823792e-01 3.8898071646690369e-01</leafValues></_></weakClassifiers></_>
    <!-- stage 19 -->
    <_>
      <maxWeakCount>13</maxWeakCount>
      <stageThreshold>-1.4347099065780640e+00</stageThreshold>
      <weakClassifiers>
        <_>
          <internalNodes>
            0 -1 15 7.7193565666675568e-03</internalNodes>
          <leafValues>
            -5.0109410285949707e-01 5.2941179275512695e-01</leafValues></_>
        <_>
          <internalNodes>
            0 -1 4 9.2968747019767761e-02</internalNodes>
          <leafValues>
            -4.6811851859092712e-01 2.2925922274589539e-01</leafValues></_>
        <_>
          <internalNodes>
            0 -1 108 4.6412502415478230e-03</internalNodes>
          <leafValues>
            -1.8640406429767609e-01 6.4794725179672241e-01</leafValues></_>
        <_>
          <internalNodes>
            0 -1 126 2.2889758110977709e-04</internalNodes>
          <leafValues>
            1.5727010369300842e-01 -7.5625914335250854e-01</leafValues></_>
        <_>
          <internalNodes>
            0 -1 33 -3.1224368140101433e-03</internalNodes>
          <leafValues>
            -7.4064201116561890e-01 1.5657849609851837e-01</leafValues></_>
        <_>
          <internalNodes>
            0 -1 21 6.9047305732965469e-03</internalNodes>
          <leafValues>
            -1.7445394396781921e-01 6.7600232362747192e-01</leafValues></_>
        <_>
          <internalNodes>
            0 -1 32 1.3134337496012449e-04</internalNodes>
          <leafValues>
            1.6866324841976166e-01 -6.3304150104522705e-01</leafValues></_>
        <_>
          <internalNodes>
            0 -1 116 6.6521903499960899e-03</internalNodes>
          <leafValues>
            -2.1816129982471466e-01 5.7837069034576416e-01</leafValues></_>
        <_>
          <internalNodes>
            0 -1 6 -2.3806899785995483e-02</internalNodes>
          <leafValues>
            -8.1696259975433350e-01 1.5258780121803284e-01</leafValues></_>
        <_>
          <internalNodes>
            0 -1 121 -2.2769342176616192e-03</internalNodes>
          <leafValues>
            6.5206962823867798e-01 -1.8633206188678741e-01</leafValues></_>
        <_>
          <internalNodes>
            0 -1 44 -5.0074253231287003e-03</internalNodes>
          <leafValues>
            -7.1576356887817383e-01 1.9219887256622314e-01</leafValues></_>
        <_>
          <internalNodes>
            0 -1 19 3.8608664181083441e-03</internalNodes>
          <leafValues>
            -1.7632092535495758e-01 7.7287346124649048e-01</leafValues></_>
        <_>
          <internalNodes>
            0 -1 22 -7.0410328917205334e-03</internalNodes>
          <leafValues>
            8.1166350841522217e-01 -1.4053882658481598e-01</leafValues></_></weakClassifiers></_></stages>
  <features>
    <_>
      <rects>
        <_>
          0 2 24 18 -1.</_>
        <_>
          8 2 8 18 3.</_></rects>
      <tilted>0</tilted></_>
    <_>
      <rects>
        <_>
          0 3 24 18 -1.</_>
        <_>
          8 3 8 18 3.</_></rects>
      <tilted>0</tilted></_>
    <_>
      <rects>
        <_>
          0 4 24 18 -1.</_>
        <_>
          8 4 8 18 3.</_></rects>
      <tilted>0</tilted></_>
    <_>
      <rects>
        <_>
          0 4 24 19 -1.</_>
        <_>
          8 4 8 19 3.</_></rects>
      <tilted>0</tilted></_>
    <_>
      <rects>
        <_>
          0 6 24 18 -1.</_>
        <_>
          0 15 24 9 2.</_></rects>
      <tilted>0</tilted></_>
    <_>
      <rects>
        <_>
          0 10 6 12 -1.</_>
        <_>
          0 10 3 6 2.</_>
        <_>
          3 16 3 6 2.</_></rects>
      <tilted>0</tilted></_>
    <_>
      <rects>
        <_>
          0 10 24 6 -1.</_>
        <_>
          0 10 12 3 2.</_>
        <_>
          12 13 12 3 2.</_></rects>
      <tilted>0</tilted></_>
    <_>
      <rects>
        <_>
          0 11 9 5 -1.</_>
        <_>
          3 11 3 5 3.</_></rects>
      <tilted>0</tilted></_>
    <_>
      <rects>
        <_>
          0 11 12 13 -1.</_>
        <_>
          6 11 6 13 2.</_></rects>
      <tilted>0</tilted></_>
    <_>
      <rects>
        <_>
          0 21 15 3 -1.</_>
        <_>
          0 22 15 1 3.</_></rects>
      <tilted>0</tilted></_>
    <_>
      <rects>
        <_>
          0 21 24 3 -1.</_>
        <_>
          0 22 24 1 3.</_></rects>
      <tilted>0</tilted></_>
    <_>
      <rects>
        <_>
          0 22 6 2 -1.</_>
        <_>
          0 22 3 1 2.</_>
        <_>
          3 23 3 1 2.</_></rects>
      <tilted>0</tilted></_>
    <_>
      <rects>
        <_>
          0 22 6 2 -1.</_>
        <_>
          0 23 6 1 2.</_></rects>
      <tilted>0</tilted></_>
    <_>
      <rects>
        <_>
          0 22 22 2 -1.</_>
        <_>
          0 23 22 1 2.</_></rects>
      <tilted>0</tilted></_>
    <_>
      <rects>
        <_>
          0 23 12 1 -1.</_>
        <_>
          4 23 4 1 3.</_></rects>
      <tilted>0</tilted></_>
    <_>
      <rects>
        <_>
          1 0 12 2 -1.</_>
        <_>
          1 0 6 1 2.</_>
        <_>
          7 1 6 1 2.</_></rects>
      <tilted>0</tilted></_>
    <_>
      <rects>
        <_>
          1 0 14 1 -1.</_>
        <_>
          8 0 7 1 2.</_></rects>
      <tilted>0</tilted></_>
    <_>
      <rects>
        <_>
          1 5 12 18 -1.</_>
        <_>
          1 14 12 9 2.</_></rects>
      <tilted>0</tilted></_>
    <_>
      <rects>
        <_>
          1 10 6 13 -1.</_>
        <_>
          4 10 3 13 2.</_></rects>
      <tilted>0</tilted></_>
    <_>
      <rects>
        <_>
          1 12 4 4 -1.</_>
        <_>
          1 12 2 2 2.</_>
        <_>
          3 14 2 2 2.</_></rects>
      <tilted>0</tilted></_>
    <_>
      <rects>
        <_>
          1 12 21 12 -1.</_>
        <_>
          1 18 21 6 2.</_></rects>
      <tilted>0</tilted></_>
    <_>
      <rects>
        <_>
          1 16 4 3 -1.</_>
        <_>
          3 16 2 3 2.</_></rects>
      <tilted>0</tilted></_>
    <_>
      <rects>
        <_>
          1 16 10 3 -1.</_>
        <_>
          1 17 10 1 3.</_></rects>
      <tilted>0</tilted></_>
    <_>
      <rects>
        <_>
          1 22 14 2 -1.</_>
        <_>
          1 22 7 1 2.</_>
        <_>
          8 23 7 1 2.</_></rects>
      <tilted>0</tilted></_>
    <_>
      <rects>
        <_>
          1 23 4 1 -1.</_>
        <_>
          3 23 2 1 2.</_></rects>
      <tilted>0</tilted></_>
    <_>
      <rects>
        <_>
          2 0 12 2 -1.</_>
        <_>
          2 0 6 1 2.</_>
        <_>
          8 1 6 1 2.</_></rects>
      <tilted>0</tilted></_>
    <_>
      <rects>
        <_>
          2 3 12 13 -1.</_>
        <_>
          8 3 6 13 2.</_></rects>
      <tilted>0</tilted></_>
    <_>
      <rects>
        <_>
          2 3 14 19 -1.</_>
        <_>
          9 3 7 19 2.</_></rects>
      <tilted>0</tilted></_>
    <_>
      <rects>
        <_>
          2 4 21 18 -1.</_>
        <_>
          9 4 7 18 3.</_></rects>
      <tilted>0</tilted></_>
    <_>
      <rects>
        <_>
          2 4 21 19 -1.</_>
        <_>
          9 4 7 19 3.</_></rects>
      <tilted>0</tilted></_>
    <_>
      <rects>
        <_>
          2 12 20 4 -1.</_>
        <_>
          2 14 20 2 2.</_></rects>
      <tilted>0</tilted></_>
    <_>
      <rects>
        <_>
          2 18 1 2 -1.</_>
        <_>
          2 19 1 1 2.</_></rects>
      <tilted>0</tilted></_>
    <_>
      <rects>
        <_>
          2 23 3 1 -1.</_>
        <_>
          3 23 1 1 3.</_></rects>
      <tilted>0</tilted></_>
    <_>
      <rects>
        <_>
          2 23 22 1 -1.</_>
        <_>
          13 23 11 1 2.</_></rects>
      <tilted>0</tilted></_>
    <_>
      <rects>
        <_>
          3 16 18 3 -1.</_>
        <_>
          3 17 18 1 3.</_></rects>
      <tilted>0</tilted></_>
    <_>
      <rects>
        <_>
          3 18 9 5 -1.</_>
        <_>
          6 18 3 5 3.</_></rects>
      <tilted>0</tilted></_>
    <_>
      <rects>
        <_>
          4 3 3 13 -1.</_>
        <_>
          5 3 1 13 3.</_></rects>
      <tilted>0</tilted></_>
    <_>
      <rects>
        <_>
          4 4 2 14 -1.</_>
        <_>
          5 4 1 14 2.</_></rects>
      <tilted>0</tilted></_>
    <_>
      <rects>
        <_>
          4 7 4 9 -1.</_>
        <_>
          6 7 2 9 2.</_></rects>
      <tilted>0</tilted></_>
    <_>
      <rects>
        <_>
          4 9 13 3 -1.</_>
        <_>
          4 10 13 1 3.</_></rects>
      <tilted>0</tilted></_>
    <_>
      <rects>
        <_>
          4 14 1 4 -1.</_>
        <_>
          4 16 1 2 2.</_></rects>
      <tilted>0</tilted></_>
    <_>
      <rects>
        <_>
          4 22 1 2 -1.</_>
        <_>
          4 23 1 1 2.</_></rects>
      <tilted>0</tilted></_>
    <_>
      <rects>
        <_>
          4 23 4 1 -1.</_>
        <_>
          6 23 2 1 2.</_></rects>
      <tilted>0</tilted></_>
    <_>
      <rects>
        <_>
          5 0 12 1 -1.</_>
        <_>
          11 0 6 1 2.</_></rects>
      <tilted>0</tilted></_>
    <_>
      <rects>
        <_>
          5 0 16 1 -1.</_>
        <_>
          13 0 8 1 2.</_></rects>
      <tilted>0</tilted></_>
    <_>
      <rects>
        <_>
          5 1 15 22 -1.</_>
        <_>
          10 1 5 22 3.</_></rects>
      <tilted>0</tilted></_>
    <_>
      <rects>
        <_>
          5 8 2 4 -1.</_>
        <_>
          6 8 1 4 2.</_></rects>
      <tilted>0</tilted></_>
    <_>
      <rects>
        <_>
          5 8 10 4 -1.</_>
        <_>
          10 8 5 4 2.</_></rects>
      <tilted>0</tilted></_>
    <_>
      <rects>
        <_>
          5 15 17 6 -1.</_>
        <_>
          5 17 17 2 3.</_></rects>
      <tilted>0</tilted></_>
    <_>
      <rects>
        <_>
          5 20 14 4 -1.</_>
        <_>
          5 22 14 2 2.</_></rects>
      <tilted>0</tilted></_>
    <_>
      <rects>
        <_>
          6 0 18 21 -1.</_>
        <_>
          12 0 6 21 3.</_></rects>
      <tilted>0</tilted></_>
    <_>
      <rects>
        <_>
          6 1 2 15 -1.</_>
        <_>
          7 1 1 15 2.</_></rects>
      <tilted>0</tilted></_>
    <_>
      <rects>
        <_>
          6 3 13 20 -1.</_>
        <_>
          6 13 13 10 2.</_></rects>
      <tilted>0</tilted></_>
    <_>
      <rects>
        <_>
          6 5 10 8 -1.</_>
        <_>
          6 5 5 4 2.</_>
        <_>
          11 9 5 4 2.</_></rects>
      <tilted>0</tilted></_>
    <_>
      <rects>
        <_>
          6 12 2 2 -1.</_>
        <_>
          7 12 1 2 2.</_></rects>
      <tilted>0</tilted></_>
    <_>
      <rects>
        <_>
          6 13 15 5 -1.</_>
        <_>
          11 13 5 5 3.</_></rects>
      <tilted>0</tilted></_>
    <_>
      <rects>
        <_>
          7 0 12 19 -1.</_>
        <_>
          11 0 4 19 3.</_></rects>
      <tilted>0</tilted></_>
    <_>
      <rects>
        <_>
          7 0 12 1 -1.</_>
        <_>
          13 0 6 1 2.</_></rects>
      <tilted>0</tilted></_>
    <_>
      <rects>
        <_>
          7 1 12 18 -1.</_>
        <_>
          11 1 4 18 3.</_></rects>
      <tilted>0</tilted></_>
    <_>
      <rects>
        <_>
          7 6 16 2 -1.</_>
        <_>
          7 7 16 1 2.</_></rects>
      <tilted>0</tilted></_>
    <_>
      <rects>
        <_>
          7 11 2 12 -1.</_>
        <_>
          7 17 2 6 2.</_></rects>
      <tilted>0</tilted></_>
    <_>
      <rects>
        <_>
          7 12 12 3 -1.</_>
        <_>
          7 13 12 1 3.</_></rects>
      <tilted>0</tilted></_>
    <_>
      <rects>
        <_>
          8 0 5 3 -1.</_>
        <_>
          8 1 5 1 3.</_></rects>
      <tilted>0</tilted></_>
    <_>
      <rects>
        <_>
          8 1 12 5 -1.</_>
        <_>
          14 1 6 5 2.</_></rects>
      <tilted>0</tilted></_>
    <_>
      <rects>
        <_>
          8 2 9 7 -1.</_>
        <_>
          11 2 3 7 3.</_></rects>
      <tilted>0</tilted></_>
    <_>
      <rects>
        <_>
          8 5 4 6 -1.</_>
        <_>
          8 8 4 3 2.</_></rects>
      <tilted>0</tilted></_>
    <_>
      <rects>
        <_>
          8 7 9 2 -1.</_>
        <_>
          11 7 3 2 3.</_></rects>
      <tilted>0</tilted></_>
    <_>
      <rects>
        <_>
          8 12 2 6 -1.</_>
        <_>
          9 12 1 6 2.</_></rects>
      <tilted>0</tilted></_>
    <_>
      <rects>
        <_>
          8 13 2 4 -1.</_>
        <_>
          9 13 1 4 2.</_></rects>
      <tilted>0</tilted></_>
    <_>
      <rects>
        <_>
          8 13 12 5 -1.</_>
        <_>
          12 13 4 5 3.</_></rects>
      <tilted>0</tilted></_>
    <_>
      <rects>
        <_>
          8 23 10 1 -1.</_>
        <_>
          13 23 5 1 2.</_></rects>
      <tilted>0</tilted></_>
    <_>
      <rects>
        <_>
          9 2 12 20 -1.</_>
        <_>
          9 12 12 10 2.</_></rects>
      <tilted>0</tilted></_>
    <_>
      <rects>
        <_>
          9 4 6 6 -1.</_>
        <_>
          9 4 3 3 2.</_>
        <_>
          12 7 3 3 2.</_></rects>
      <tilted>0</tilted></_>
    <_>
      <rects>
        <_>
          9 5 6 16 -1.</_>
        <_>
          9 13 6 8 2.</_></rects>
      <tilted>0</tilted></_>
    <_>
      <rects>
        <_>
          9 10 2 4 -1.</_>
        <_>
          9 12 2 2 2.</_></rects>
      <tilted>0</tilted></_>
    <_>
      <rects>
        <_>
          9 16 15 3 -1.</_>
        <_>
          14 16 5 3 3.</_></rects>
      <tilted>0</tilted></_>
    <_>
      <rects>
        <_>
          9 20 13 3 -1.</_>
        <_>
          9 21 13 1 3.</_></rects>
      <tilted>0</tilted></_>
    <_>
      <rects>
        <_>
          10 0 1 4 -1.</_>
        <_>
          10 2 1 2 2.</_></rects>
      <tilted>0</tilted></_>
    <_>
      <rects>
        <_>
          10 0 6 12 -1.</_>
        <_>
          12 0 2 12 3.</_></rects>
      <tilted>0</tilted></_>
    <_>
      <rects>
        <_>
          10 0 8 1 -1.</_>
        <_>
          14 0 4 1 2.</_></rects>
      <tilted>0</tilted></_>
    <_>
      <rects>
        <_>
          10 1 3 2 -1.</_>
        <_>
          11 1 1 2 3.</_></rects>
      <tilted>0</tilted></_>
    <_>
      <rects>
        <_>
          10 1 12 18 -1.</_>
        <_>
          10 1 6 9 2.</_>
        <_>
          16 10 6 9 2.</_></rects>
      <tilted>0</tilted></_>
    <_>
      <rects>
        <_>
          10 10 2 4 -1.</_>
        <_>
          10 12 2 2 2.</_></rects>
      <tilted>0</tilted></_>
    <_>
      <rects>
        <_>
          11 0 2 12 -1.</_>
        <_>
          11 4 2 4 3.</_></rects>
      <tilted>0</tilted></_>
    <_>
      <rects>
        <_>
          11 1 3 3 -1.</_>
        <_>
          12 1 1 3 3.</_></rects>
      <tilted>0</tilted></_>
    <_>
      <rects>
        <_>
          11 5 3 4 -1.</_>
        <_>
          11 7 3 2 2.</_></rects>
      <tilted>0</tilted></_>
    <_>
      <rects>
        <_>
          11 8 10 2 -1.</_>
        <_>
          16 8 5 2 2.</_></rects>
      <tilted>0</tilted></_>
    <_>
      <rects>
        <_>
          11 10 2 1 -1.</_>
        <_>
          12 10 1 1 2.</_></rects>
      <tilted>0</tilted></_>
    <_>
      <rects>
        <_>
          11 11 12 3 -1.</_>
        <_>
          15 11 4 3 3.</_></rects>
      <tilted>0</tilted></_>
    <_>
      <rects>
        <_>
          11 12 2 1 -1.</_>
        <_>
          12 12 1 1 2.</_></rects>
      <tilted>0</tilted></_>
    <_>
      <rects>
        <_>
          11 16 1 3 -1.</_>
        <_>
          11 17 1 1 3.</_></rects>
      <tilted>0</tilted></_>
    <_>
      <rects>
        <_>
          11 18 8 4 -1.</_>
        <_>
          11 18 4 2 2.</_>
        <_>
          15 20 4 2 2.</_></rects>
      <tilted>0</tilted></_>
    <_>
      <rects>
        <_>
          11 20 9 3 -1.</_>
        <_>
          11 21 9 1 3.</_></rects>
      <tilted>0</tilted></_>
    <_>
      <rects>
        <_>
          12 1 10 6 -1.</_>
        <_>
          12 4 10 3 2.</_></rects>
      <tilted>0</tilted></_>
    <_>
      <rects>
        <_>
          12 10 3 7 -1.</_>
        <_>
          13 10 1 7 3.</_></rects>
      <tilted>0</tilted></_>
    <_>
      <rects>
        <_>
          12 18 12 2 -1.</_>
        <_>
          16 18 4 2 3.</_></rects>
      <tilted>0</tilted></_>
    <_>
      <rects>
        <_>
          12 20 12 4 -1.</_>
        <_>
          12 20 6 2 2.</_>
        <_>
          18 22 6 2 2.</_></rects>
      <tilted>0</tilted></_>
    <_>
      <rects>
        <_>
          12 22 12 2 -1.</_>
        <_>
          12 22 6 1 2.</_>
        <_>
          18 23 6 1 2.</_></rects>
      <tilted>0</tilted></_>
    <_>
      <rects>
        <_>
          12 23 12 1 -1.</_>
        <_>
          16 23 4 1 3.</_></rects>
      <tilted>0</tilted></_>
    <_>
      <rects>
        <_>
          13 11 1 2 -1.</_>
        <_>
          13 12 1 1 2.</_></rects>
      <tilted>0</tilted></_>
    <_>
      <rects>
        <_>
          13 18 6 6 -1.</_>
        <_>
          16 18 3 6 2.</_></rects>
      <tilted>0</tilted></_>
    <_>
      <rects>
        <_>
          14 8 3 16 -1.</_>
        <_>
          14 16 3 8 2.</_></rects>
      <tilted>0</tilted></_>
    <_>
      <rects>
        <_>
          14 10 7 3 -1.</_>
        <_>
          14 11 7 1 3.</_></rects>
      <tilted>0</tilted></_>
    <_>
      <rects>
        <_>
          14 23 9 1 -1.</_>
        <_>
          17 23 3 1 3.</_></rects>
      <tilted>0</tilted></_>
    <_>
      <rects>
        <_>
          15 0 6 1 -1.</_>
        <_>
          18 0 3 1 2.</_></rects>
      <tilted>0</tilted></_>
    <_>
      <rects>
        <_>
          15 6 9 18 -1.</_>
        <_>
          15 15 9 9 2.</_></rects>
      <tilted>0</tilted></_>
    <_>
      <rects>
        <_>
          15 7 4 6 -1.</_>
        <_>
          15 9 4 2 3.</_></rects>
      <tilted>0</tilted></_>
    <_>
      <rects>
        <_>
          15 8 9 16 -1.</_>
        <_>
          15 16 9 8 2.</_></rects>
      <tilted>0</tilted></_>
    <_>
      <rects>
        <_>
          15 22 8 2 -1.</_>
        <_>
          15 22 4 1 2.</_>
        <_>
          19 23 4 1 2.</_></rects>
      <tilted>0</tilted></_>
    <_>
      <rects>
        <_>
          16 0 8 6 -1.</_>
        <_>
          16 3 8 3 2.</_></rects>
      <tilted>0</tilted></_>
    <_>
      <rects>
        <_>
          16 7 8 16 -1.</_>
        <_>
          16 7 4 8 2.</_>
        <_>
          20 15 4 8 2.</_></rects>
      <tilted>0</tilted></_>
    <_>
      <rects>
        <_>
          16 21 3 3 -1.</_>
        <_>
          17 21 1 3 3.</_></rects>
      <tilted>0</tilted></_>
    <_>
      <rects>
        <_>
          16 22 8 2 -1.</_>
        <_>
          16 22 4 1 2.</_>
        <_>
          20 23 4 1 2.</_></rects>
      <tilted>0</tilted></_>
    <_>
      <rects>
        <_>
          16 23 8 1 -1.</_>
        <_>
          20 23 4 1 2.</_></rects>
      <tilted>0</tilted></_>
    <_>
      <rects>
        <_>
          17 2 1 6 -1.</_>
        <_>
          17 5 1 3 2.</_></rects>
      <tilted>0</tilted></_>
    <_>
      <rects>
        <_>
          17 6 6 15 -1.</_>
        <_>
          19 6 2 15 3.</_></rects>
      <tilted>0</tilted></_>
    <_>
      <rects>
        <_>
          17 15 2 6 -1.</_>
        <_>
          17 17 2 2 3.</_></rects>
      <tilted>0</tilted></_>
    <_>
      <rects>
        <_>
          18 23 2 1 -1.</_>
        <_>
          19 23 1 1 2.</_></rects>
      <tilted>0</tilted></_>
    <_>
      <rects>
        <_>
          19 12 1 12 -1.</_>
        <_>
          19 18 1 6 2.</_></rects>
      <tilted>0</tilted></_>
    <_>
      <rects>
        <_>
          19 18 2 6 -1.</_>
        <_>
          19 20 2 2 3.</_></rects>
      <tilted>0</tilted></_>
    <_>
      <rects>
        <_>
          19 18 5 2 -1.</_>
        <_>
          19 19 5 1 2.</_></rects>
      <tilted>0</tilted></_>
    <_>
      <rects>
        <_>
          19 21 3 3 -1.</_>
        <_>
          19 22 3 1 3.</_></rects>
      <tilted>0</tilted></_>
    <_>
      <rects>
        <_>
          20 0 1 9 -1.</_>
        <_>
          20 3 1 3 3.</_></rects>
      <tilted>0</tilted></_>
    <_>
      <rects>
        <_>
          20 5 1 2 -1.</_>
        <_>
          20 6 1 1 2.</_></rects>
      <tilted>0</tilted></_>
    <_>
      <rects>
        <_>
          20 8 3 2 -1.</_>
        <_>
          20 9 3 1 2.</_></rects>
      <tilted>0</tilted></_>
    <_>
      <rects>
        <_>
          20 9 3 4 -1.</_>
        <_>
          20 11 3 2 2.</_></rects>
      <tilted>0</tilted></_>
    <_>
      <rects>
        <_>
          20 23 2 1 -1.</_>
        <_>
          21 23 1 1 2.</_></rects>
      <tilted>0</tilted></_>
    <_>
      <rects>
        <_>
          22 20 2 4 -1.</_>
        <_>
          22 22 2 2 2.</_></rects>
      <tilted>0</tilted></_>
    <_>
      <rects>
        <_>
          22 21 2 3 -1.</_>
        <_>
          23 21 1 3 2.</_></rects>
      <tilted>0</tilted></_>
    <_>
      <rects>
        <_>
          22 22 1 2 -1.</_>
        <_>
          22 23 1 1 2.</_></rects>
      <tilted>0</tilted></_>
    <_>
      <rects>
        <_>
          22 22 2 2 -1.</_>
        <_>
          22 23 2 1 2.</_></rects>
      <tilted>0</tilted></_>
    <_>
      <rects>
        <_>
          23 11 1 6 -1.</_>
        <_>
          23 13 1 2 3.</_></rects>
      <tilted>0</tilted></_>
    <_>
      <rects>
        <_>
          23 14 1 2 -1.</_>
        <_>
          23 15 1 1 2.</_></rects>
      <tilted>0</tilted></_>
    <_>
      <rects>
        <_>
          23 20 1 4 -1.</_>
        <_>
          23 22 1 2 2.</_></rects>
      <tilted>0</tilted></_></features></cascade>
</opencv_storage>
