<?xml version="1.0"?>
<opencv_storage>
<cascade>
  <stageType>BOOST</stageType>
  <featureType>HAAR</featureType>
  <height>24</height>
  <width>24</width>
  <stageParams>
    <boostType>GAB</boostType>
    <minHitRate>9.9500000476837158e-01</minHitRate>
    <maxFalseAlarm>5.0000000000000000e-01</maxFalseAlarm>
    <weightTrimRate>9.4999998807907104e-01</weightTrimRate>
    <maxDepth>1</maxDepth>
    <maxWeakCount>100</maxWeakCount></stageParams>
  <featureParams>
    <maxCatCount>0</maxCatCount>
    <featSize>1</featSize>
    <mode>BASIC</mode></featureParams>
  <stageNum>20</stageNum>
  <stages>
    <!-- stage 0 -->
    <_>
      <maxWeakCount>4</maxWeakCount>
      <stageThreshold>-5.4743576049804688e-01</stageThreshold>
      <weakClassifiers>
        <_>
          <internalNodes>
            0 -1 31 -3.3443033695220947e-02</internalNodes>
          <leafValues>
            8.7654322385787964e-01 -6.9432312250137329e-01</leafValues></_>
        <_>
          <internalNodes>
            0 -1 9 1.1219289153814316e-02</internalNodes>
          <leafValues>
            -4.2409354448318481e-01 9.4987511634826660e-01</leafValues></_>
        <_>
          <internalNodes>
            0 -1 29 1.2124113738536835e-02</internalNodes>
          <leafValues>
            -3.9937797188758850e-01 9.7473853826522827e-01</leafValues></_>
        <_>
          <internalNodes>
            0 -1 33 -5.5728643201291561e-03</internalNodes>
          <leafValues>
            9.7035890817642212e-01 -2.6422140002250671e-01</leafValues></_></weakClassifiers></_>
    <!-- stage 1 -->
    <_>
      <maxWeakCount>6</maxWeakCount>
      <stageThreshold>-5.5745112895965576e-01</stageThreshold>
      <weakClassifiers>
        <_>
          <internalNodes>
            0 -1 20 -2.0903551578521729e-01</internalNodes>
          <leafValues>
            7.5903612375259399e-01 -6.6519826650619507e-01</leafValues></_>
        <_>
          <internalNodes>
            0 -1 90 4.7334455884993076e-03</internalNodes>
          <leafValues>
            -4.5412316918373108e-01 8.1629484891891479e-01</leafValues></_>
        <_>
          <internalNodes>
            0 -1 109 -3.4630807931534946e-04</internalNodes>
          <leafValues>
            -8.9128106832504272e-01 3.3363357186317444e-01</leafValues></_>
        <_>
          <internalNodes>
            0 -1 45 -2.5904655456542969e-02</internalNodes>
          <leafValues>
            8.8619786500930786e-01 -3.3747199177742004e-01</leafValues></_>
        <_>
          <internalNodes>
            0 -1 24 6.2267646193504333e-02</internalNodes>
          <leafValues>
            -2.6775243878364563e-01 8.9239448308944702e-01</leafValues></_>
        <_>
          <internalNodes>
            0 -1 16 -8.8444337248802185e-02</internalNodes>
          <leafValues>
            9.0557521581649780e-01 -3.2668575644493103e-01</leafValues></_></weakClassifiers></_>
    <!-- stage 2 -->
    <_>
      <maxWeakCount>5</maxWeakCount>
      <stageThreshold>-6.4652454853057861e-01</stageThreshold>
      <weakClassifiers>
        <_>
          <internalNodes>
            0 -1 30 -6.5273538231849670e-02</internalNodes>
          <leafValues>
            6.9863015413284302e-01 -5.8649790287017822e-01</leafValues></_>
        <_>
          <internalNodes>
            0 -1 23 -7.2034828364849091e-02</internalNodes>
          <leafValues>
            9.2249554395675659e-01 -3.2280439138412476e-01</leafValues></_>
        <_>
          <internalNodes>
            0 -1 32 -1.8275349866598845e-03</internalNodes>
          <leafValues>
            -9.1018897294998169e-01 3.4627285599708557e-01</leafValues></_>
        <_>
          <internalNodes>
            0 -1 107 -1.2606587260961533e-03</internalNodes>
          <leafValues>
            -8.1684148311614990e-01 2.7155783772468567e-01</leafValues></_>
        <_>
          <internalNodes>
            0 -1 68 -3.1597740016877651e-03</internalNodes>
          <leafValues>
            8.9064508676528931e-01 -3.4389105439186096e-01</leafValues></_></weakClassifiers></_>
    <!-- stage 3 -->
    <_>
      <maxWeakCount>4</maxWeakCount>
      <stageThreshold>-5.5222028493881226e-01</stageThreshold>
      <weakClassifiers>
        <_>
          <internalNodes>
            0 -1 17 -4.2477320879697800e-02</internalNodes>
          <leafValues>
            7.7777779102325439e-01 -5.0781250000000000e-01</leafValues></_>
        <_>
          <internalNodes>
            0 -1 36 3.8809042423963547e-02</internalNodes>
          <leafValues>
            -4.6886670589447021e-01 5.0920408964157104e-01</leafValues></_>
        <_>
          <internalNodes>
            0 -1 104 -5.2078563021495938e-04</internalNodes>
          <leafValues>
            -1. 2.1676497161388397e-01</leafValues></_>
        <_>
          <internalNodes>
            0 -1 105 3.9416068466380239e-04</internalNodes>
          <leafValues>
            2.0769394934177399e-01 -1.</leafValues></_></weakClassifiers></_>
    <!-- stage 4 -->
    <_>
      <maxWeakCount>5</maxWeakCount>
      <stageThreshold>-5.2248042821884155e-01</stageThreshold>
      <weakClassifiers>
        <_>
          <internalNodes>
            0 -1 65 -3.9635363966226578e-02</internalNodes>
          <leafValues>
            7.0491802692413330e-01 -5.2610439062118530e-01</leafValues></_>
        <_>
          <internalNodes>
            0 -1 105 -6.2965019606053829e-04</internalNodes>
          <leafValues>
            -9.8203718662261963e-01 2.4421533942222595e-01</leafValues></_>
        <_>
          <internalNodes>
            0 -1 66 2.0697008818387985e-02</internalNodes>
          <leafValues>
            -5.5727142095565796e-01 4.6052369475364685e-01</leafValues></_>
        <_>
          <internalNodes>
            0 -1 75 -1.9352199742570519e-03</internalNodes>
          <leafValues>
            6.3402003049850464e-01 -3.4089332818984985e-01</leafValues></_>
        <_>
          <internalNodes>
            0 -1 18 -7.4893474578857422e-02</internalNodes>
          <leafValues>
            7.4963843822479248e-01 -3.1734004616737366e-01</leafValues></_></weakClassifiers></_>
    <!-- stage 5 -->
    <_>
      <maxWeakCount>4</maxWeakCount>
      <stageThreshold>-4.4006013870239258e-01</stageThreshold>
      <weakClassifiers>
        <_>
          <internalNodes>
            0 -1 25 -8.0595187842845917e-02</internalNodes>
          <leafValues>
            6.6101694107055664e-01 -5.0597608089447021e-01</leafValues></_>
        <_>
          <internalNodes>
            0 -1 2 1.9622659310698509e-03</internalNodes>
          <leafValues>
            2.0984840393066406e-01 -7.8701281547546387e-01</leafValues></_>
        <_>
          <internalNodes>
            0 -1 27 6.1821234412491322e-03</internalNodes>
          <leafValues>
            -2.6492616534233093e-01 7.6394838094711304e-01</leafValues></_>
        <_>
          <internalNodes>
            0 -1 114 -2.8347489424049854e-03</internalNodes>
          <leafValues>
            -9.0788084268569946e-01 2.2946177423000336e-01</leafValues></_></weakClassifiers></_>
    <!-- stage 6 -->
    <_>
      <maxWeakCount>6</maxWeakCount>
      <stageThreshold>-9.0226227045059204e-01</stageThreshold>
      <weakClassifiers>
        <_>
          <internalNodes>
            0 -1 47 -6.1312384903430939e-02</internalNodes>
          <leafValues>
            7.9591834545135498e-01 -4.8659002780914307e-01</leafValues></_>
        <_>
          <internalNodes>
            0 -1 19 -1.3521955115720630e-03</internalNodes>
          <leafValues>
            -7.8858625888824463e-01 2.6995179057121277e-01</leafValues></_>
        <_>
          <internalNodes>
            0 -1 57 -1.3075126335024834e-03</internalNodes>
          <leafValues>
            7.8068155050277710e-01 -3.0830019712448120e-01</leafValues></_>
        <_>
          <internalNodes>
            0 -1 99 -1.5023008745629340e-04</internalNodes>
          <leafValues>
            -9.0420258045196533e-01 2.3086945712566376e-01</leafValues></_>
        <_>
          <internalNodes>
            0 -1 92 -1.5142252668738365e-03</internalNodes>
          <leafValues>
            6.1945354938507080e-01 -3.6955320835113525e-01</leafValues></_>
        <_>
          <internalNodes>
            0 -1 53 -3.2922346144914627e-03</internalNodes>
          <leafValues>
            8.3988994359970093e-01 -2.3864008486270905e-01</leafValues></_></weakClassifiers></_>
    <!-- stage 7 -->
    <_>
      <maxWeakCount>7</maxWeakCount>
      <stageThreshold>-6.3785076141357422e-01</stageThreshold>
      <weakClassifiers>
        <_>
          <internalNodes>
            0 -1 63 -1.2405639514327049e-02</internalNodes>
          <leafValues>
            4.3589743971824646e-01 -5.2586209774017334e-01</leafValues></_>
        <_>
          <internalNodes>
            0 -1 56 -2.1809238940477371e-02</internalNodes>
          <leafValues>
            7.5707316398620605e-01 -2.4675500392913818e-01</leafValues></_>
        <_>
          <internalNodes>
            0 -1 22 -1.0756240785121918e-01</internalNodes>
          <leafValues>
            6.2952691316604614e-01 -3.1355440616607666e-01</leafValues></_>
        <_>
          <internalNodes>
            0 -1 5 4.6855511027388275e-04</internalNodes>
          <leafValues>
            2.2220356762409210e-01 -9.2176479101181030e-01</leafValues></_>
        <_>
          <internalNodes>
            0 -1 62 -5.8589139953255653e-03</internalNodes>
          <leafValues>
            6.6584622859954834e-01 -3.0725184082984924e-01</leafValues></_>
        <_>
          <internalNodes>
            0 -1 55 1.3072242727503181e-03</internalNodes>
          <leafValues>
            -2.0694002509117126e-01 7.5999504327774048e-01</leafValues></_>
        <_>
          <internalNodes>
            0 -1 38 -2.2985581308603287e-03</internalNodes>
          <leafValues>
            8.4325176477432251e-01 -2.0277228951454163e-01</leafValues></_></weakClassifiers></_>
    <!-- stage 8 -->
    <_>
      <maxWeakCount>4</maxWeakCount>
      <stageThreshold>-4.9717336893081665e-01</stageThreshold>
      <weakClassifiers>
        <_>
          <internalNodes>
            0 -1 11 -1.1838524788618088e-01</internalNodes>
          <leafValues>
            8.8571429252624512e-01 -4.3272727727890015e-01</leafValues></_>
        <_>
          <internalNodes>
            0 -1 96 -1.4171358197927475e-03</internalNodes>
          <leafValues>
            -1. 2.1209096908569336e-01</leafValues></_>
        <_>
          <internalNodes>
            0 -1 49 1.9069753587245941e-02</internalNodes>
          <leafValues>
            -5.4361343383789063e-01 3.9599657058715820e-01</leafValues></_>
        <_>
          <internalNodes>
            0 -1 14 5.6238734396174550e-04</internalNodes>
          <leafValues>
            3.0412921309471130e-01 -6.7253363132476807e-01</leafValues></_></weakClassifiers></_>
    <!-- stage 9 -->
    <_>
      <maxWeakCount>8</maxWeakCount>
      <stageThreshold>-9.5242363214492798e-01</stageThreshold>
      <weakClassifiers>
        <_>
          <internalNodes>
            0 -1 76 -1.5781767433509231e-03</internalNodes>
          <leafValues>
            4.2857143282890320e-01 -5.1931327581405640e-01</leafValues></_>
        <_>
          <internalNodes>
            0 -1 111 -5.5533833801746368e-04</internalNodes>
          <leafValues>
            -8.5288941860198975e-01 1.7446570098400116e-01</leafValues></_>
        <_>
          <internalNodes>
            0 -1 6 -1.0217677336186171e-03</internalNodes>
          <leafValues>
            -8.9140492677688599e-01 1.4999690651893616e-01</leafValues></_>
        <_>
          <internalNodes>
            0 -1 50 -7.8495740890502930e-03</internalNodes>
          <leafValues>
            -8.7722414731979370e-01 1.6424657404422760e-01</leafValues></_>
        <_>
          <internalNodes>
            0 -1 39 -7.6595254242420197e-02</internalNodes>
          <leafValues>
            7.0921814441680908e-01 -2.8177788853645325e-01</leafValues></_>
        <_>
          <internalNodes>
            0 -1 88 -3.1127841211855412e-03</internalNodes>
          <leafValues>
            6.5504074096679688e-01 -3.1961622834205627e-01</leafValues></_>
        <_>
          <internalNodes>
            0 -1 89 3.8932696043048054e-05</internalNodes>
          <leafValues>
            -5.0480502843856812e-01 4.2417424917221069e-01</leafValues></_>
        <_>
          <internalNodes>
            0 -1 108 -1.7807206604629755e-03</internalNodes>
          <leafValues>
            -7.8193265199661255e-01 2.8275546431541443e-01</leafValues></_></weakClassifiers></_>
    <!-- stage 10 -->
    <_>
      <maxWeakCount>6</maxWeakCount>
      <stageThreshold>-1.2755405902862549e+00</stageThreshold>
      <weakClassifiers>
        <_>
          <internalNodes>
            0 -1 67 -1.7685851082205772e-02</internalNodes>
          <leafValues>
            7.2549021244049072e-01 -4.8262548446655273e-01</leafValues></_>
        <_>
          <internalNodes>
            0 -1 84 -8.8103432208299637e-03</internalNodes>
          <leafValues>
            8.1279599666595459e-01 -2.5224596261978149e-01</leafValues></_>
        <_>
          <internalNodes>
            0 -1 94 2.9463942628353834e-03</internalNodes>
          <leafValues>
            -1.9718919694423676e-01 7.1483731269836426e-01</leafValues></_>
        <_>
          <internalNodes>
            0 -1 61 3.3515651011839509e-05</internalNodes>
          <leafValues>
            -3.8632258772850037e-01 4.2434340715408325e-01</leafValues></_>
        <_>
          <internalNodes>
            0 -1 54 -3.8374163210391998e-02</internalNodes>
          <leafValues>
            5.2578532695770264e-01 -3.0344983935356140e-01</leafValues></_>
        <_>
          <internalNodes>
            0 -1 8 8.6133996956050396e-04</internalNodes>
          <leafValues>
            -4.8294264078140259e-01 3.3427900075912476e-01</leafValues></_></weakClassifiers></_>
    <!-- stage 11 -->
    <_>
      <maxWeakCount>6</maxWeakCount>
      <stageThreshold>-9.1827571392059326e-01</stageThreshold>
      <weakClassifiers>
        <_>
          <internalNodes>
            0 -1 34 1.1523726861923933e-03</internalNodes>
          <leafValues>
            -4.5669290423393250e-01 5.0000000000000000e-01</leafValues></_>
        <_>
          <internalNodes>
            0 -1 52 4.2109414935112000e-02</internalNodes>
          <leafValues>
            -5.5452233552932739e-01 3.1530949473381042e-01</leafValues></_>
        <_>
          <internalNodes>
            0 -1 106 -7.9114042455330491e-04</internalNodes>
          <leafValues>
            -7.7896410226821899e-01 1.9969287514686584e-01</leafValues></_>
        <_>
          <internalNodes>
            0 -1 103 -1.2786351726390421e-04</internalNodes>
          <leafValues>
            3.3820807933807373e-01 -4.8006212711334229e-01</leafValues></_>
        <_>
          <internalNodes>
            0 -1 113 5.1398610230535269e-04</internalNodes>
          <leafValues>
            1.6402652859687805e-01 -9.5721817016601563e-01</leafValues></_>
        <_>
          <internalNodes>
            0 -1 71 5.7568341493606567e-02</internalNodes>
          <leafValues>
            -5.0016278028488159e-01 2.8406560420989990e-01</leafValues></_></weakClassifiers></_>
    <!-- stage 12 -->
    <_>
      <maxWeakCount>7</maxWeakCount>
      <stageThreshold>-8.2554477453231812e-01</stageThreshold>
      <weakClassifiers>
        <_>
          <internalNodes>
            0 -1 43 -2.6710834354162216e-02</internalNodes>
          <leafValues>
            3.7662336230278015e-01 -5.0214594602584839e-01</leafValues></_>
        <_>
          <internalNodes>
            0 -1 98 5.4615596309304237e-04</internalNodes>
          <leafValues>
            -2.9409912228584290e-01 5.4577785730361938e-01</leafValues></_>
        <_>
          <internalNodes>
            0 -1 83 -3.7171255098655820e-04</internalNodes>
          <leafValues>
            5.5088883638381958e-01 -2.9141253232955933e-01</leafValues></_>
        <_>
          <internalNodes>
            0 -1 87 2.2107141558080912e-04</internalNodes>
          <leafValues>
            2.3703046143054962e-01 -8.5537797212600708e-01</leafValues></_>
        <_>
          <internalNodes>
            0 -1 78 9.2618814960587770e-05</internalNodes>
          <leafValues>
            -3.8889300823211670e-01 4.3695819377899170e-01</leafValues></_>
        <_>
          <internalNodes>
            0 -1 21 -1.2866021692752838e-01</internalNodes>
          <leafValues>
            9.2330193519592285e-01 -1.9316501915454865e-01</leafValues></_>
        <_>
          <internalNodes>
            0 -1 41 -8.8015443179756403e-04</internalNodes>
          <leafValues>
            6.4918375015258789e-01 -2.3273664712905884e-01</leafValues></_></weakClassifiers></_>
    <!-- stage 13 -->
    <_>
      <maxWeakCount>5</maxWeakCount>
      <stageThreshold>-7.8307157754898071e-01</stageThreshold>
      <weakClassifiers>
        <_>
          <internalNodes>
            0 -1 40 4.2649704962968826e-02</internalNodes>
          <leafValues>
            -5.3488373756408691e-01 2.8421053290367126e-01</leafValues></_>
        <_>
          <internalNodes>
            0 -1 0 1.9726174650713801e-04</internalNodes>
          <leafValues>
            1.6156296432018280e-01 -7.8461295366287231e-01</leafValues></_>
        <_>
          <internalNodes>
            0 -1 95 7.4691779445856810e-04</internalNodes>
          <leafValues>
            1.2141575664281845e-01 -9.3234962224960327e-01</leafValues></_>
        <_>
          <internalNodes>
            0 -1 59 -2.4692919105291367e-03</internalNodes>
          <leafValues>
            5.2858453989028931e-01 -3.1048160791397095e-01</leafValues></_>
        <_>
          <internalNodes>
            0 -1 79 -1.5969092492014170e-03</internalNodes>
          <leafValues>
            7.5601625442504883e-01 -2.2068497538566589e-01</leafValues></_></weakClassifiers></_>
    <!-- stage 14 -->
    <_>
      <maxWeakCount>7</maxWeakCount>
      <stageThreshold>-7.6112574338912964e-01</stageThreshold>
      <weakClassifiers>
        <_>
          <internalNodes>
            0 -1 77 -1.8733474425971508e-03</internalNodes>
          <leafValues>
            3.4146341681480408e-01 -5.0877195596694946e-01</leafValues></_>
        <_>
          <internalNodes>
            0 -1 13 2.9365137219429016e-02</internalNodes>
          <leafValues>
            1.2770131230354309e-01 -1.</leafValues></_>
        <_>
          <internalNodes>
            0 -1 51 1.1105196550488472e-02</internalNodes>
          <leafValues>
            -2.0833395421504974e-01 7.7523559331893921e-01</leafValues></_>
        <_>
          <internalNodes>
            0 -1 12 3.4555513411760330e-03</internalNodes>
          <leafValues>
            1.7151236534118652e-01 -9.1485393047332764e-01</leafValues></_>
        <_>
          <internalNodes>
            0 -1 35 2.2099276538938284e-03</internalNodes>
          <leafValues>
            -2.4640943109989166e-01 6.1119598150253296e-01</leafValues></_>
        <_>
          <internalNodes>
            0 -1 82 2.4129065423039719e-05</internalNodes>
          <leafValues>
            -4.7639071941375732e-01 3.2470631599426270e-01</leafValues></_>
        <_>
          <internalNodes>
            0 -1 26 -9.7433818154968321e-05</internalNodes>
          <leafValues>
            3.9484947919845581e-01 -4.2153042554855347e-01</leafValues></_></weakClassifiers></_>
    <!-- stage 15 -->
    <_>
      <maxWeakCount>6</maxWeakCount>
      <stageThreshold>-5.8623307943344116e-01</stageThreshold>
      <weakClassifiers>
        <_>
          <internalNodes>
            0 -1 46 -3.6102555692195892e-02</internalNodes>
          <leafValues>
            4.1176471114158630e-01 -4.7933885455131531e-01</leafValues></_>
        <_>
          <internalNodes>
            0 -1 112 -5.4049645550549030e-03</internalNodes>
          <leafValues>
            -7.9157567024230957e-01 1.7044588923454285e-01</leafValues></_>
        <_>
          <internalNodes>
            0 -1 70 -1.6472089919261634e-04</internalNodes>
          <leafValues>
            3.3932837843894958e-01 -4.3473470211029053e-01</leafValues></_>
        <_>
          <internalNodes>
            0 -1 97 3.3918151166290045e-04</internalNodes>
          <leafValues>
            2.1446150541305542e-01 -8.9236170053482056e-01</leafValues></_>
        <_>
          <internalNodes>
            0 -1 37 2.8491884004324675e-03</internalNodes>
          <leafValues>
            -2.8007191419601440e-01 6.9235718250274658e-01</leafValues></_>
        <_>
          <internalNodes>
            0 -1 93 -1.8321669194847345e-03</internalNodes>
          <leafValues>
            4.1096347570419312e-01 -4.2871287465095520e-01</leafValues></_></weakClassifiers></_>
    <!-- stage 16 -->
    <_>
      <maxWeakCount>7</maxWeakCount>
      <stageThreshold>-8.2221746444702148e-01</stageThreshold>
      <weakClassifiers>
        <_>
          <internalNodes>
            0 -1 15 1.5018116682767868e-02</internalNodes>
          <leafValues>
            -4.0579709410667419e-01 7.0588237047195435e-01</leafValues></_>
        <_>
          <internalNodes>
            0 -1 28 -7.8206183388829231e-04</internalNodes>
          <leafValues>
            5.0024896860122681e-01 -3.4628114104270935e-01</leafValues></_>
        <_>
          <internalNodes>
            0 -1 48 -3.2066807150840759e-02</internalNodes>
          <leafValues>
            6.5947103500366211e-01 -2.1550452709197998e-01</leafValues></_>
        <_>
          <internalNodes>
            0 -1 3 -1.9583231769502163e-03</internalNodes>
          <leafValues>
            -8.1518477201461792e-01 2.4392640590667725e-01</leafValues></_>
        <_>
          <internalNodes>
            0 -1 74 3.6731525324285030e-03</internalNodes>
          <leafValues>
            -2.3184220492839813e-01 7.1077013015747070e-01</leafValues></_>
        <_>
          <internalNodes>
            0 -1 58 -3.3860191702842712e-02</internalNodes>
          <leafValues>
            5.4508638381958008e-01 -2.9365101456642151e-01</leafValues></_>
        <_>
          <internalNodes>
            0 -1 42 -6.5222266130149364e-03</internalNodes>
          <leafValues>
            8.4877640008926392e-01 -1.9922420382499695e-01</leafValues></_></weakClassifiers></_>
    <!-- stage 17 -->
    <_>
      <maxWeakCount>5</maxWeakCount>
      <stageThreshold>-8.8152015209197998e-01</stageThreshold>
      <weakClassifiers>
        <_>
          <internalNodes>
            0 -1 80 3.8255870342254639e-02</internalNodes>
          <leafValues>
            -6.0674154758453369e-01 1.5151515603065491e-01</leafValues></_>
        <_>
          <internalNodes>
            0 -1 73 2.1701654419302940e-02</internalNodes>
          <leafValues>
            -2.6355308294296265e-01 6.5420055389404297e-01</leafValues></_>
        <_>
          <internalNodes>
            0 -1 1 4.5150378718972206e-04</internalNodes>
          <leafValues>
            1.8843711912631989e-01 -8.9382493495941162e-01</leafValues></_>
        <_>
          <internalNodes>
            0 -1 44 -8.8428638875484467e-02</internalNodes>
          <leafValues>
            -7.1704494953155518e-01 2.4461784958839417e-01</leafValues></_>
        <_>
          <internalNodes>
            0 -1 102 -2.3920587409520522e-05</internalNodes>
          <leafValues>
            4.2120987176895142e-01 -4.0037128329277039e-01</leafValues></_></weakClassifiers></_>
    <!-- stage 18 -->
    <_>
      <maxWeakCount>6</maxWeakCount>
      <stageThreshold>-7.5498133897781372e-01</stageThreshold>
      <weakClassifiers>
        <_>
          <internalNodes>
            0 -1 81 -3.2407385297119617e-03</internalNodes>
          <leafValues>
            3.7142857909202576e-01 -4.7499999403953552e-01</leafValues></_>
        <_>
          <internalNodes>
            0 -1 4 -2.7616537408903241e-04</internalNodes>
          <leafValues>
            -8.7595385313034058e-01 1.5177033841609955e-01</leafValues></_>
        <_>
          <internalNodes>
            0 -1 101 2.0819802302867174e-03</internalNodes>
          <leafValues>
            1.4711725711822510e-01 -8.2535457611083984e-01</leafValues></_>
        <_>
          <internalNodes>
            0 -1 64 5.5971933761611581e-04</internalNodes>
          <leafValues>
            -3.8489899039268494e-01 4.3126460909843445e-01</leafValues></_>
        <_>
          <internalNodes>
            0 -1 72 -8.0558005720376968e-04</internalNodes>
          <leafValues>
            6.2284976243972778e-01 -2.5634887814521790e-01</leafValues></_>
        <_>
          <internalNodes>
            0 -1 100 -2.4282641708850861e-02</internalNodes>
          <leafValues>
            -7.5378465652465820e-01 2.5965085625648499e-01</leafValues></_></weakClassifiers></_>
    <!-- stage 19 -->
    <_>
      <maxWeakCount>8</maxWeakCount>
      <stageThreshold>-7.6497519016265869e-01</stageThreshold>
      <weakClassifiers>
        <_>
          <internalNodes>
            0 -1 10 -1.6694715619087219e-01</internalNodes>
          <leafValues>
            7.2222220897674561e-01 -4.1605839133262634e-01</leafValues></_>
        <_>
          <internalNodes>
            0 -1 86 -3.0654519796371460e-03</internalNodes>
          <leafValues>
            -9.5449203252792358e-01 1.6736854612827301e-01</leafValues></_>
        <_>
          <internalNodes>
            0 -1 85 -1.4559832634404302e-03</internalNodes>
          <leafValues>
            3.9624983072280884e-01 -4.1260889172554016e-01</leafValues></_>
        <_>
          <internalNodes>
            0 -1 91 -1.9043192878598347e-05</internalNodes>
          <leafValues>
            5.3049743175506592e-01 -3.4051421284675598e-01</leafValues></_>
        <_>
          <internalNodes>
            0 -1 7 -1.5847402811050415e-01</internalNodes>
          <leafValues>
            9.5741212368011475e-01 -1.5559791028499603e-01</leafValues></_>
        <_>
          <internalNodes>
            0 -1 69 -1.1292084818705916e-03</internalNodes>
          <leafValues>
            5.6778424978256226e-01 -2.7400785684585571e-01</leafValues></_>
        <_>
          <internalNodes>
            0 -1 110 -2.0992038771510124e-03</internalNodes>
          <leafValues>
            -7.4774909019470215e-01 2.2081071138381958e-01</leafValues></_>
        <_>
          <internalNodes>
            0 -1 60 -1.7993870424106717e-03</internalNodes>
          <leafValues>
            7.3169964551925659e-01 -2.6567777991294861e-01</leafValues></_></weakClassifiers></_></stages>
  <features>
    <_>
      <rects>
        <_>
          0 0 1 3 -1.</_>
        <_>
          0 1 1 1 3.</_></rects>
      <tilted>0</tilted></_>
    <_>
      <rects>
        <_>
          0 0 2 2 -1.</_>
        <_>
          1 0 1 2 2.</_></rects>
      <tilted>0</tilted></_>
    <_>
      <rects>
        <_>
          0 0 9 1 -1.</_>
        <_>
          3 0 3 1 3.</_></rects>
      <tilted>0</tilted></_>
    <_>
      <rects>
        <_>
          0 0 9 2 -1.</_>
        <_>
          3 0 3 2 3.</_></rects>
      <tilted>0</tilted></_>
    <_>
      <rects>
        <_>
          0 1 2 1 -1.</_>
        <_>
          1 1 1 1 2.</_></rects>
      <tilted>0</tilted></_>
    <_>
      <rects>
        <_>
          0 1 1 2 -1.</_>
        <_>
          0 2 1 1 2.</_></rects>
      <tilted>0</tilted></_>
    <_>
      <rects>
        <_>
          0 2 3 3 -1.</_>
        <_>
          0 3 3 1 3.</_></rects>
      <tilted>0</tilted></_>
    <_>
      <rects>
        <_>
          0 3 16 7 -1.</_>
        <_>
          8 3 8 7 2.</_></rects>
      <tilted>0</tilted></_>
    <_>
      <rects>
        <_>
          0 6 2 10 -1.</_>
        <_>
          1 6 1 10 2.</_></rects>
      <tilted>0</tilted></_>
    <_>
      <rects>
        <_>
          0 8 6 6 -1.</_>
        <_>
          2 8 2 6 3.</_></rects>
      <tilted>0</tilted></_>
    <_>
      <rects>
        <_>
          0 9 15 8 -1.</_>
        <_>
          5 9 5 8 3.</_></rects>
      <tilted>0</tilted></_>
    <_>
      <rects>
        <_>
          0 10 24 2 -1.</_>
        <_>
          8 10 8 2 3.</_></rects>
      <tilted>0</tilted></_>
    <_>
      <rects>
        <_>
          0 12 2 6 -1.</_>
        <_>
          0 14 2 2 3.</_></rects>
      <tilted>0</tilted></_>
    <_>
      <rects>
        <_>
          0 21 14 3 -1.</_>
        <_>
          7 21 7 3 2.</_></rects>
      <tilted>0</tilted></_>
    <_>
      <rects>
        <_>
          0 22 6 2 -1.</_>
        <_>
          0 23 6 1 2.</_></rects>
      <tilted>0</tilted></_>
    <_>
      <rects>
        <_>
          1 9 6 2 -1.</_>
        <_>
          3 9 2 2 3.</_></rects>
      <tilted>0</tilted></_>
    <_>
      <rects>
        <_>
          1 10 15 5 -1.</_>
        <_>
          6 10 5 5 3.</_></rects>
      <tilted>0</tilted></_>
    <_>
      <rects>
        <_>
          1 12 18 1 -1.</_>
        <_>
          7 12 6 1 3.</_></rects>
      <tilted>0</tilted></_>
    <_>
      <rects>
        <_>
          1 12 18 2 -1.</_>
        <_>
          7 12 6 2 3.</_></rects>
      <tilted>0</tilted></_>
    <_>
      <rects>
        <_>
          2 1 6 2 -1.</_>
        <_>
          4 1 2 2 3.</_></rects>
      <tilted>0</tilted></_>
    <_>
      <rects>
        <_>
          2 6 18 11 -1.</_>
        <_>
          8 6 6 11 3.</_></rects>
      <tilted>0</tilted></_>
    <_>
      <rects>
        <_>
          2 8 12 6 -1.</_>
        <_>
          6 8 4 6 3.</_></rects>
      <tilted>0</tilted></_>
    <_>
      <rects>
        <_>
          2 8 12 10 -1.</_>
        <_>
          6 8 4 10 3.</_></rects>
      <tilted>0</tilted></_>
    <_>
      <rects>
        <_>
          2 10 12 4 -1.</_>
        <_>
          6 10 4 4 3.</_></rects>
      <tilted>0</tilted></_>
    <_>
      <rects>
        <_>
          2 10 14 8 -1.</_>
        <_>
          2 10 7 4 2.</_>
        <_>
          9 14 7 4 2.</_></rects>
      <tilted>0</tilted></_>
    <_>
      <rects>
        <_>
          2 11 18 2 -1.</_>
        <_>
          8 11 6 2 3.</_></rects>
      <tilted>0</tilted></_>
    <_>
      <rects>
        <_>
          2 17 2 4 -1.</_>
        <_>
          2 17 1 2 2.</_>
        <_>
          3 19 1 2 2.</_></rects>
      <tilted>0</tilted></_>
    <_>
      <rects>
        <_>
          3 7 2 12 -1.</_>
        <_>
          3 7 1 6 2.</_>
        <_>
          4 13 1 6 2.</_></rects>
      <tilted>0</tilted></_>
    <_>
      <rects>
        <_>
          3 9 3 3 -1.</_>
        <_>
          4 9 1 3 3.</_></rects>
      <tilted>0</tilted></_>
    <_>
      <rects>
        <_>
          3 9 6 5 -1.</_>
        <_>
          5 9 2 5 3.</_></rects>
      <tilted>0</tilted></_>
    <_>
      <rects>
        <_>
          3 9 10 4 -1.</_>
        <_>
          8 9 5 4 2.</_></rects>
      <tilted>0</tilted></_>
    <_>
      <rects>
        <_>
          3 11 15 2 -1.</_>
        <_>
          8 11 5 2 3.</_></rects>
      <tilted>0</tilted></_>
    <_>
      <rects>
        <_>
          3 21 6 2 -1.</_>
        <_>
          5 21 2 2 3.</_></rects>
      <tilted>0</tilted></_>
    <_>
      <rects>
        <_>
          4 6 6 3 -1.</_>
        <_>
          6 6 2 3 3.</_></rects>
      <tilted>0</tilted></_>
    <_>
      <rects>
        <_>
          4 7 2 4 -1.</_>
        <_>
          4 7 1 2 2.</_>
        <_>
          5 9 1 2 2.</_></rects>
      <tilted>0</tilted></_>
    <_>
      <rects>
        <_>
          4 10 3 2 -1.</_>
        <_>
          5 10 1 2 3.</_></rects>
      <tilted>0</tilted></_>
    <_>
      <rects>
        <_>
          4 10 17 8 -1.</_>
        <_>
          4 14 17 4 2.</_></rects>
      <tilted>0</tilted></_>
    <_>
      <rects>
        <_>
          5 5 4 4 -1.</_>
        <_>
          5 5 2 2 2.</_>
        <_>
          7 7 2 2 2.</_></rects>
      <tilted>0</tilted></_>
    <_>
      <rects>
        <_>
          5 7 3 3 -1.</_>
        <_>
          5 8 3 1 3.</_></rects>
      <tilted>0</tilted></_>
    <_>
      <rects>
        <_>
          5 10 12 4 -1.</_>
        <_>
          9 10 4 4 3.</_></rects>
      <tilted>0</tilted></_>
    <_>
      <rects>
        <_>
          5 10 19 6 -1.</_>
        <_>
          5 13 19 3 2.</_></rects>
      <tilted>0</tilted></_>
    <_>
      <rects>
        <_>
          5 11 2 4 -1.</_>
        <_>
          5 11 1 2 2.</_>
        <_>
          6 13 1 2 2.</_></rects>
      <tilted>0</tilted></_>
    <_>
      <rects>
        <_>
          5 12 6 4 -1.</_>
        <_>
          5 12 3 2 2.</_>
        <_>
          8 14 3 2 2.</_></rects>
      <tilted>0</tilted></_>
    <_>
      <rects>
        <_>
          6 0 9 9 -1.</_>
        <_>
          6 3 9 3 3.</_></rects>
      <tilted>0</tilted></_>
    <_>
      <rects>
        <_>
          6 0 18 16 -1.</_>
        <_>
          15 0 9 16 2.</_></rects>
      <tilted>0</tilted></_>
    <_>
      <rects>
        <_>
          6 6 6 10 -1.</_>
        <_>
          8 6 2 10 3.</_></rects>
      <tilted>0</tilted></_>
    <_>
      <rects>
        <_>
          6 7 6 9 -1.</_>
        <_>
          6 10 6 3 3.</_></rects>
      <tilted>0</tilted></_>
    <_>
      <rects>
        <_>
          6 8 8 9 -1.</_>
        <_>
          6 11 8 3 3.</_></rects>
      <tilted>0</tilted></_>
    <_>
      <rects>
        <_>
          6 9 4 10 -1.</_>
        <_>
          8 9 2 10 2.</_></rects>
      <tilted>0</tilted></_>
    <_>
      <rects>
        <_>
          6 11 11 10 -1.</_>
        <_>
          6 16 11 5 2.</_></rects>
      <tilted>0</tilted></_>
    <_>
      <rects>
        <_>
          6 23 15 1 -1.</_>
        <_>
          11 23 5 1 3.</_></rects>
      <tilted>0</tilted></_>
    <_>
      <rects>
        <_>
          7 7 3 6 -1.</_>
        <_>
          7 9 3 2 3.</_></rects>
      <tilted>0</tilted></_>
    <_>
      <rects>
        <_>
          7 9 13 12 -1.</_>
        <_>
          7 15 13 6 2.</_></rects>
      <tilted>0</tilted></_>
    <_>
      <rects>
        <_>
          7 10 4 4 -1.</_>
        <_>
          7 10 2 2 2.</_>
        <_>
          9 12 2 2 2.</_></rects>
      <tilted>0</tilted></_>
    <_>
      <rects>
        <_>
          7 14 16 10 -1.</_>
        <_>
          7 14 8 5 2.</_>
        <_>
          15 19 8 5 2.</_></rects>
      <tilted>0</tilted></_>
    <_>
      <rects>
        <_>
          8 7 2 3 -1.</_>
        <_>
          8 8 2 1 3.</_></rects>
      <tilted>0</tilted></_>
    <_>
      <rects>
        <_>
          8 8 4 6 -1.</_>
        <_>
          10 8 2 6 2.</_></rects>
      <tilted>0</tilted></_>
    <_>
      <rects>
        <_>
          8 9 2 3 -1.</_>
        <_>
          8 10 2 1 3.</_></rects>
      <tilted>0</tilted></_>
    <_>
      <rects>
        <_>
          8 9 9 6 -1.</_>
        <_>
          11 9 3 6 3.</_></rects>
      <tilted>0</tilted></_>
    <_>
      <rects>
        <_>
          8 13 3 8 -1.</_>
        <_>
          9 13 1 8 3.</_></rects>
      <tilted>0</tilted></_>
    <_>
      <rects>
        <_>
          8 16 5 3 -1.</_>
        <_>
          8 17 5 1 3.</_></rects>
      <tilted>0</tilted></_>
    <_>
      <rects>
        <_>
          8 20 2 2 -1.</_>
        <_>
          8 20 1 1 2.</_>
        <_>
          9 21 1 1 2.</_></rects>
      <tilted>0</tilted></_>
    <_>
      <rects>
        <_>
          9 6 2 6 -1.</_>
        <_>
          9 8 2 2 3.</_></rects>
      <tilted>0</tilted></_>
    <_>
      <rects>
        <_>
          9 7 1 12 -1.</_>
        <_>
          9 11 1 4 3.</_></rects>
      <tilted>0</tilted></_>
    <_>
      <rects>
        <_>
          9 8 6 2 -1.</_>
        <_>
          9 8 3 1 2.</_>
        <_>
          12 9 3 1 2.</_></rects>
      <tilted>0</tilted></_>
    <_>
      <rects>
        <_>
          9 8 6 9 -1.</_>
        <_>
          9 11 6 3 3.</_></rects>
      <tilted>0</tilted></_>
    <_>
      <rects>
        <_>
          9 9 10 6 -1.</_>
        <_>
          9 12 10 3 2.</_></rects>
      <tilted>0</tilted></_>
    <_>
      <rects>
        <_>
          9 10 6 4 -1.</_>
        <_>
          11 10 2 4 3.</_></rects>
      <tilted>0</tilted></_>
    <_>
      <rects>
        <_>
          9 11 4 1 -1.</_>
        <_>
          11 11 2 1 2.</_></rects>
      <tilted>0</tilted></_>
    <_>
      <rects>
        <_>
          9 16 1 4 -1.</_>
        <_>
          9 18 1 2 2.</_></rects>
      <tilted>0</tilted></_>
    <_>
      <rects>
        <_>
          9 18 3 3 -1.</_>
        <_>
          10 18 1 3 3.</_></rects>
      <tilted>0</tilted></_>
    <_>
      <rects>
        <_>
          10 0 12 23 -1.</_>
        <_>
          16 0 6 23 2.</_></rects>
      <tilted>0</tilted></_>
    <_>
      <rects>
        <_>
          10 7 2 4 -1.</_>
        <_>
          10 7 1 2 2.</_>
        <_>
          11 9 1 2 2.</_></rects>
      <tilted>0</tilted></_>
    <_>
      <rects>
        <_>
          10 9 9 3 -1.</_>
        <_>
          13 9 3 3 3.</_></rects>
      <tilted>0</tilted></_>
    <_>
      <rects>
        <_>
          10 15 4 6 -1.</_>
        <_>
          10 15 2 3 2.</_>
        <_>
          12 18 2 3 2.</_></rects>
      <tilted>0</tilted></_>
    <_>
      <rects>
        <_>
          10 17 9 1 -1.</_>
        <_>
          13 17 3 1 3.</_></rects>
      <tilted>0</tilted></_>
    <_>
      <rects>
        <_>
          10 17 4 3 -1.</_>
        <_>
          10 18 4 1 3.</_></rects>
      <tilted>0</tilted></_>
    <_>
      <rects>
        <_>
          10 17 5 3 -1.</_>
        <_>
          10 18 5 1 3.</_></rects>
      <tilted>0</tilted></_>
    <_>
      <rects>
        <_>
          11 1 4 2 -1.</_>
        <_>
          13 1 2 2 2.</_></rects>
      <tilted>0</tilted></_>
    <_>
      <rects>
        <_>
          11 7 6 2 -1.</_>
        <_>
          11 7 3 1 2.</_>
        <_>
          14 8 3 1 2.</_></rects>
      <tilted>0</tilted></_>
    <_>
      <rects>
        <_>
          11 7 5 16 -1.</_>
        <_>
          11 15 5 8 2.</_></rects>
      <tilted>0</tilted></_>
    <_>
      <rects>
        <_>
          11 10 7 3 -1.</_>
        <_>
          11 11 7 1 3.</_></rects>
      <tilted>0</tilted></_>
    <_>
      <rects>
        <_>
          12 1 12 2 -1.</_>
        <_>
          12 1 6 1 2.</_>
        <_>
          18 2 6 1 2.</_></rects>
      <tilted>0</tilted></_>
    <_>
      <rects>
        <_>
          12 6 1 2 -1.</_>
        <_>
          12 7 1 1 2.</_></rects>
      <tilted>0</tilted></_>
    <_>
      <rects>
        <_>
          12 10 6 4 -1.</_>
        <_>
          14 10 2 4 3.</_></rects>
      <tilted>0</tilted></_>
    <_>
      <rects>
        <_>
          12 10 9 3 -1.</_>
        <_>
          12 11 9 1 3.</_></rects>
      <tilted>0</tilted></_>
    <_>
      <rects>
        <_>
          12 22 9 1 -1.</_>
        <_>
          15 22 3 1 3.</_></rects>
      <tilted>0</tilted></_>
    <_>
      <rects>
        <_>
          13 0 3 1 -1.</_>
        <_>
          14 0 1 1 3.</_></rects>
      <tilted>0</tilted></_>
    <_>
      <rects>
        <_>
          13 5 2 6 -1.</_>
        <_>
          13 7 2 2 3.</_></rects>
      <tilted>0</tilted></_>
    <_>
      <rects>
        <_>
          14 0 10 2 -1.</_>
        <_>
          14 0 5 1 2.</_>
        <_>
          19 1 5 1 2.</_></rects>
      <tilted>0</tilted></_>
    <_>
      <rects>
        <_>
          14 7 1 8 -1.</_>
        <_>
          14 11 1 4 2.</_></rects>
      <tilted>0</tilted></_>
    <_>
      <rects>
        <_>
          14 21 2 2 -1.</_>
        <_>
          15 21 1 2 2.</_></rects>
      <tilted>0</tilted></_>
    <_>
      <rects>
        <_>
          15 6 1 6 -1.</_>
        <_>
          15 8 1 2 3.</_></rects>
      <tilted>0</tilted></_>
    <_>
      <rects>
        <_>
          15 7 4 6 -1.</_>
        <_>
          15 9 4 2 3.</_></rects>
      <tilted>0</tilted></_>
    <_>
      <rects>
        <_>
          15 8 2 12 -1.</_>
        <_>
          15 8 1 6 2.</_>
        <_>
          16 14 1 6 2.</_></rects>
      <tilted>0</tilted></_>
    <_>
      <rects>
        <_>
          15 22 2 2 -1.</_>
        <_>
          16 22 1 2 2.</_></rects>
      <tilted>0</tilted></_>
    <_>
      <rects>
        <_>
          15 23 9 1 -1.</_>
        <_>
          18 23 3 1 3.</_></rects>
      <tilted>0</tilted></_>
    <_>
      <rects>
        <_>
          16 2 3 1 -1.</_>
        <_>
          17 2 1 1 3.</_></rects>
      <tilted>0</tilted></_>
    <_>
      <rects>
        <_>
          16 14 2 2 -1.</_>
        <_>
          17 14 1 2 2.</_></rects>
      <tilted>0</tilted></_>
    <_>
      <rects>
        <_>
          17 0 2 2 -1.</_>
        <_>
          17 0 1 1 2.</_>
        <_>
          18 1 1 1 2.</_></rects>
      <tilted>0</tilted></_>
    <_>
      <rects>
        <_>
          17 6 5 9 -1.</_>
        <_>
          17 9 5 3 3.</_></rects>
      <tilted>0</tilted></_>
    <_>
      <rects>
        <_>
          18 0 6 4 -1.</_>
        <_>
          20 0 2 4 3.</_></rects>
      <tilted>0</tilted></_>
    <_>
      <rects>
        <_>
          18 12 3 5 -1.</_>
        <_>
          19 12 1 5 3.</_></rects>
      <tilted>0</tilted></_>
    <_>
      <rects>
        <_>
          19 13 3 9 -1.</_>
        <_>
          20 13 1 9 3.</_></rects>
      <tilted>0</tilted></_>
    <_>
      <rects>
        <_>
          19 19 4 2 -1.</_>
        <_>
          19 19 2 1 2.</_>
        <_>
          21 20 2 1 2.</_></rects>
      <tilted>0</tilted></_>
    <_>
      <rects>
        <_>
          20 0 3 2 -1.</_>
        <_>
          21 0 1 2 3.</_></rects>
      <tilted>0</tilted></_>
    <_>
      <rects>
        <_>
          20 23 4 1 -1.</_>
        <_>
          22 23 2 1 2.</_></rects>
      <tilted>0</tilted></_>
    <_>
      <rects>
        <_>
          21 0 3 14 -1.</_>
        <_>
          22 0 1 14 3.</_></rects>
      <tilted>0</tilted></_>
    <_>
      <rects>
        <_>
          21 19 3 4 -1.</_>
        <_>
          21 21 3 2 2.</_></rects>
      <tilted>0</tilted></_>
    <_>
      <rects>
        <_>
          22 0 2 6 -1.</_>
        <_>
          23 0 1 6 2.</_></rects>
      <tilted>0</tilted></_>
    <_>
      <rects>
        <_>
          22 7 2 14 -1.</_>
        <_>
          22 7 1 7 2.</_>
        <_>
          23 14 1 7 2.</_></rects>
      <tilted>0</tilted></_>
    <_>
      <rects>
        <_>
          22 10 2 3 -1.</_>
        <_>
          22 11 2 1 3.</_></rects>
      <tilted>0</tilted></_>
    <_>
      <rects>
        <_>
          22 14 2 8 -1.</_>
        <_>
          22 18 2 4 2.</_></rects>
      <tilted>0</tilted></_>
    <_>
      <rects>
        <_>
          22 22 2 2 -1.</_>
        <_>
          23 22 1 2 2.</_></rects>
      <tilted>0</tilted></_>
    <_>
      <rects>
        <_>
          23 3 1 9 -1.</_>
        <_>
          23 6 1 3 3.</_></rects>
      <tilted>0</tilted></_></features></cascade>
</opencv_storage>
