<?xml version="1.0"?>
<opencv_storage>
<cascade>
  <stageType>BOOST</stageType>
  <featureType>HAAR</featureType>
  <height>24</height>
  <width>36</width>
  <stageParams>
    <boostType>GAB</boostType>
    <minHitRate>9.9500000476837158e-01</minHitRate>
    <maxFalseAlarm>5.0000000000000000e-01</maxFalseAlarm>
    <weightTrimRate>9.4999999999999996e-01</weightTrimRate>
    <maxDepth>1</maxDepth>
    <maxWeakCount>100</maxWeakCount></stageParams>
  <featureParams>
    <maxCatCount>0</maxCatCount>
    <featSize>1</featSize>
    <mode>BASIC</mode></featureParams>
  <stageNum>14</stageNum>
  <stages>
    <!-- stage 0 -->
    <_>
      <maxWeakCount>3</maxWeakCount>
      <stageThreshold>-1.1918286085128784e+00</stageThreshold>
      <weakClassifiers>
        <_>
          <internalNodes>
            0 -1 0 3.3269059658050537e-01</internalNodes>
          <leafValues>
            -8.5057473182678223e-01 9.3548387289047241e-01</leafValues></_>
        <_>
          <internalNodes>
            0 -1 27 1.8369914963841438e-02</internalNodes>
          <leafValues>
            -7.9934686422348022e-01 3.8573625683784485e-01</leafValues></_>
        <_>
          <internalNodes>
            0 -1 43 -3.3800872188294306e-05</internalNodes>
          <leafValues>
            -7.4502128362655640e-01 4.5809298753738403e-01</leafValues></_></weakClassifiers></_>
    <!-- stage 1 -->
    <_>
      <maxWeakCount>3</maxWeakCount>
      <stageThreshold>-8.1917059421539307e-01</stageThreshold>
      <weakClassifiers>
        <_>
          <internalNodes>
            0 -1 1 4.3298345804214478e-01</internalNodes>
          <leafValues>
            -7.6795578002929688e-01 8.9090907573699951e-01</leafValues></_>
        <_>
          <internalNodes>
            0 -1 26 1.7832141369581223e-02</internalNodes>
          <leafValues>
            -7.5514280796051025e-01 4.2792409658432007e-01</leafValues></_>
        <_>
          <internalNodes>
            0 -1 13 1.9735659006983042e-03</internalNodes>
          <leafValues>
            -4.4033721089363098e-01 7.0392799377441406e-01</leafValues></_></weakClassifiers></_>
    <!-- stage 2 -->
    <_>
      <maxWeakCount>4</maxWeakCount>
      <stageThreshold>-6.6652911901473999e-01</stageThreshold>
      <weakClassifiers>
        <_>
          <internalNodes>
            0 -1 15 1.8422794342041016e-01</internalNodes>
          <leafValues>
            -7.8443115949630737e-01 5.9420287609100342e-01</leafValues></_>
        <_>
          <internalNodes>
            0 -1 36 -1.9971784204244614e-03</internalNodes>
          <leafValues>
            6.4783138036727905e-01 -4.6162921190261841e-01</leafValues></_>
        <_>
          <internalNodes>
            0 -1 5 -1.5911880182102323e-03</internalNodes>
          <leafValues>
            -1. 2.9980674386024475e-01</leafValues></_>
        <_>
          <internalNodes>
            0 -1 46 3.2535745413042605e-04</internalNodes>
          <leafValues>
            2.7972447872161865e-01 -7.6746726036071777e-01</leafValues></_></weakClassifiers></_>
    <!-- stage 3 -->
    <_>
      <maxWeakCount>4</maxWeakCount>
      <stageThreshold>-9.4856208562850952e-01</stageThreshold>
      <weakClassifiers>
        <_>
          <internalNodes>
            0 -1 2 4.9900096654891968e-01</internalNodes>
          <leafValues>
            -7.5000000000000000e-01 5.2941179275512695e-01</leafValues></_>
        <_>
          <internalNodes>
            0 -1 30 -1.6720278654247522e-04</internalNodes>
          <leafValues>
            -9.3266016244888306e-01 2.3000869154930115e-01</leafValues></_>
        <_>
          <internalNodes>
            0 -1 18 1.1942295357584953e-02</internalNodes>
          <leafValues>
            -6.0627287626266479e-01 4.1425964236259460e-01</leafValues></_>
        <_>
          <internalNodes>
            0 -1 14 6.4876107499003410e-03</internalNodes>
          <leafValues>
            4.4366937875747681e-01 -8.4283041954040527e-01</leafValues></_></weakClassifiers></_>
    <!-- stage 4 -->
    <_>
      <maxWeakCount>4</maxWeakCount>
      <stageThreshold>-9.2594945430755615e-01</stageThreshold>
      <weakClassifiers>
        <_>
          <internalNodes>
            0 -1 4 4.1768699884414673e-01</internalNodes>
          <leafValues>
            -6.8786126375198364e-01 4.6031746268272400e-01</leafValues></_>
        <_>
          <internalNodes>
            0 -1 44 7.8145239967852831e-05</internalNodes>
          <leafValues>
            2.9018732905387878e-01 -7.6763856410980225e-01</leafValues></_>
        <_>
          <internalNodes>
            0 -1 45 -3.4074066206812859e-04</internalNodes>
          <leafValues>
            -8.3113497495651245e-01 2.5646665692329407e-01</leafValues></_>
        <_>
          <internalNodes>
            0 -1 48 -8.9219640358351171e-05</internalNodes>
          <leafValues>
            -8.1029099225997925e-01 3.0285942554473877e-01</leafValues></_></weakClassifiers></_>
    <!-- stage 5 -->
    <_>
      <maxWeakCount>2</maxWeakCount>
      <stageThreshold>-3.0827161669731140e-01</stageThreshold>
      <weakClassifiers>
        <_>
          <internalNodes>
            0 -1 7 7.7063199132680893e-03</internalNodes>
          <leafValues>
            -5.8999997377395630e-01 7.7777779102325439e-01</leafValues></_>
        <_>
          <internalNodes>
            0 -1 10 -4.7289147973060608e-02</internalNodes>
          <leafValues>
            -9.6218019723892212e-01 2.8172838687896729e-01</leafValues></_></weakClassifiers></_>
    <!-- stage 6 -->
    <_>
      <maxWeakCount>6</maxWeakCount>
      <stageThreshold>-7.5169909000396729e-01</stageThreshold>
      <weakClassifiers>
        <_>
          <internalNodes>
            0 -1 8 -2.0289015956223011e-03</internalNodes>
          <leafValues>
            6.8421053886413574e-01 -5.8585858345031738e-01</leafValues></_>
        <_>
          <internalNodes>
            0 -1 23 -3.2039047218859196e-03</internalNodes>
          <leafValues>
            -7.9508352279663086e-01 2.9347154498100281e-01</leafValues></_>
        <_>
          <internalNodes>
            0 -1 17 5.5021978914737701e-03</internalNodes>
          <leafValues>
            2.2643931210041046e-01 -8.9062279462814331e-01</leafValues></_>
        <_>
          <internalNodes>
            0 -1 21 1.0636508464813232e-02</internalNodes>
          <leafValues>
            -5.6757074594497681e-01 4.0789291262626648e-01</leafValues></_>
        <_>
          <internalNodes>
            0 -1 42 -1.4464699233940337e-05</internalNodes>
          <leafValues>
            -6.3447552919387817e-01 4.0337044000625610e-01</leafValues></_>
        <_>
          <internalNodes>
            0 -1 40 6.1853369697928429e-03</internalNodes>
          <leafValues>
            -4.0845963358879089e-01 7.0592880249023438e-01</leafValues></_></weakClassifiers></_>
    <!-- stage 7 -->
    <_>
      <maxWeakCount>4</maxWeakCount>
      <stageThreshold>-7.5794124603271484e-01</stageThreshold>
      <weakClassifiers>
        <_>
          <internalNodes>
            0 -1 3 4.7299283742904663e-01</internalNodes>
          <leafValues>
            -6.9662922620773315e-01 5.8620691299438477e-01</leafValues></_>
        <_>
          <internalNodes>
            0 -1 47 4.6476387069560587e-05</internalNodes>
          <leafValues>
            3.7139940261840820e-01 -6.0127305984497070e-01</leafValues></_>
        <_>
          <internalNodes>
            0 -1 19 2.9789090156555176e-02</internalNodes>
          <leafValues>
            -6.1144793033599854e-01 4.5715230703353882e-01</leafValues></_>
        <_>
          <internalNodes>
            0 -1 33 -1.8564804922789335e-03</internalNodes>
          <leafValues>
            -8.8986372947692871e-01 3.1666514277458191e-01</leafValues></_></weakClassifiers></_>
    <!-- stage 8 -->
    <_>
      <maxWeakCount>5</maxWeakCount>
      <stageThreshold>-6.3606894016265869e-01</stageThreshold>
      <weakClassifiers>
        <_>
          <internalNodes>
            0 -1 38 4.6337638050317764e-03</internalNodes>
          <leafValues>
            -6.0204082727432251e-01 6.9999998807907104e-01</leafValues></_>
        <_>
          <internalNodes>
            0 -1 22 9.3180932104587555e-02</internalNodes>
          <leafValues>
            -4.3628710508346558e-01 6.1285120248794556e-01</leafValues></_>
        <_>
          <internalNodes>
            0 -1 16 -1.5359079698100686e-03</internalNodes>
          <leafValues>
            7.9916560649871826e-01 -3.2588973641395569e-01</leafValues></_>
        <_>
          <internalNodes>
            0 -1 9 -7.1202841354534030e-05</internalNodes>
          <leafValues>
            -5.7599955797195435e-01 4.6067166328430176e-01</leafValues></_>
        <_>
          <internalNodes>
            0 -1 35 -1.5606435481458902e-03</internalNodes>
          <leafValues>
            -8.7655574083328247e-01 2.6747703552246094e-01</leafValues></_></weakClassifiers></_>
    <!-- stage 9 -->
    <_>
      <maxWeakCount>2</maxWeakCount>
      <stageThreshold>-3.6152884364128113e-01</stageThreshold>
      <weakClassifiers>
        <_>
          <internalNodes>
            0 -1 32 -1.6535784304141998e-01</internalNodes>
          <leafValues>
            3.6666667461395264e-01 -6.3636362552642822e-01</leafValues></_>
        <_>
          <internalNodes>
            0 -1 34 3.6934096715413034e-04</internalNodes>
          <leafValues>
            3.5308569669723511e-01 -7.2819548845291138e-01</leafValues></_></weakClassifiers></_>
    <!-- stage 10 -->
    <_>
      <maxWeakCount>5</maxWeakCount>
      <stageThreshold>-1.1928484439849854e+00</stageThreshold>
      <weakClassifiers>
        <_>
          <internalNodes>
            0 -1 41 -1.2126573361456394e-02</internalNodes>
          <leafValues>
            6.9999998807907104e-01 -6.0204082727432251e-01</leafValues></_>
        <_>
          <internalNodes>
            0 -1 31 1.5375544899143279e-04</internalNodes>
          <leafValues>
            -9.0740805864334106e-01 3.6141261458396912e-01</leafValues></_>
        <_>
          <internalNodes>
            0 -1 49 9.6642586868256330e-04</internalNodes>
          <leafValues>
            -4.0081706643104553e-01 6.7593133449554443e-01</leafValues></_>
        <_>
          <internalNodes>
            0 -1 6 -4.3482938781380653e-04</internalNodes>
          <leafValues>
            -9.8707896471023560e-01 2.8867012262344360e-01</leafValues></_>
        <_>
          <internalNodes>
            0 -1 11 -4.1351802647113800e-03</internalNodes>
          <leafValues>
            -6.2530606985092163e-01 4.2874735593795776e-01</leafValues></_></weakClassifiers></_>
    <!-- stage 11 -->
    <_>
      <maxWeakCount>3</maxWeakCount>
      <stageThreshold>-8.8810729980468750e-01</stageThreshold>
      <weakClassifiers>
        <_>
          <internalNodes>
            0 -1 25 1.7062740516848862e-04</internalNodes>
          <leafValues>
            -8.6163520812988281e-01 6.1038959026336670e-01</leafValues></_>
        <_>
          <internalNodes>
            0 -1 28 -1.8313087057322264e-03</internalNodes>
          <leafValues>
            9.1739892959594727e-01 -6.2391316890716553e-01</leafValues></_>
        <_>
          <internalNodes>
            0 -1 29 1.4211023517418653e-04</internalNodes>
          <leafValues>
            -8.8643163442611694e-01 5.9744107723236084e-01</leafValues></_></weakClassifiers></_>
    <!-- stage 12 -->
    <_>
      <maxWeakCount>2</maxWeakCount>
      <stageThreshold>-1.6365982592105865e-01</stageThreshold>
      <weakClassifiers>
        <_>
          <internalNodes>
            0 -1 24 1.6270624473690987e-04</internalNodes>
          <leafValues>
            -8.1609195470809937e-01 8.3870965242385864e-01</leafValues></_>
        <_>
          <internalNodes>
            0 -1 20 3.4552956931293011e-03</internalNodes>
          <leafValues>
            6.5243214368820190e-01 -7.4444150924682617e-01</leafValues></_></weakClassifiers></_>
    <!-- stage 13 -->
    <_>
      <maxWeakCount>3</maxWeakCount>
      <stageThreshold>-5.6171429157257080e-01</stageThreshold>
      <weakClassifiers>
        <_>
          <internalNodes>
            0 -1 39 -1.0536579793551937e-05</internalNodes>
          <leafValues>
            7.5384616851806641e-01 -8.1286549568176270e-01</leafValues></_>
        <_>
          <internalNodes>
            0 -1 37 -9.8419404821470380e-06</internalNodes>
          <leafValues>
            8.4327876567840576e-01 -5.9069144725799561e-01</leafValues></_>
        <_>
          <internalNodes>
            0 -1 12 -1.4608940109610558e-03</internalNodes>
          <leafValues>
            8.4184271097183228e-01 -5.4101735353469849e-01</leafValues></_></weakClassifiers></_></stages>
  <features>
    <_>
      <rects>
        <_>
          0 0 26 24 -1.</_>
        <_>
          13 0 13 24 2.</_></rects>
      <tilted>0</tilted></_>
    <_>
      <rects>
        <_>
          0 2 26 20 -1.</_>
        <_>
          13 2 13 20 2.</_></rects>
      <tilted>0</tilted></_>
    <_>
      <rects>
        <_>
          0 2 28 22 -1.</_>
        <_>
          14 2 14 22 2.</_></rects>
      <tilted>0</tilted></_>
    <_>
      <rects>
        <_>
          0 3 26 20 -1.</_>
        <_>
          13 3 13 20 2.</_></rects>
      <tilted>0</tilted></_>
    <_>
      <rects>
        <_>
          1 2 22 22 -1.</_>
        <_>
          12 2 11 22 2.</_></rects>
      <tilted>0</tilted></_>
    <_>
      <rects>
        <_>
          1 20 8 4 -1.</_>
        <_>
          5 20 4 4 2.</_></rects>
      <tilted>0</tilted></_>
    <_>
      <rects>
        <_>
          2 21 6 3 -1.</_>
        <_>
          5 21 3 3 2.</_></rects>
      <tilted>0</tilted></_>
    <_>
      <rects>
        <_>
          4 15 30 2 -1.</_>
        <_>
          4 16 30 1 2.</_></rects>
      <tilted>0</tilted></_>
    <_>
      <rects>
        <_>
          4 21 7 3 -1.</_>
        <_>
          4 22 7 1 3.</_></rects>
      <tilted>0</tilted></_>
    <_>
      <rects>
        <_>
          5 2 28 6 -1.</_>
        <_>
          5 4 28 2 3.</_></rects>
      <tilted>0</tilted></_>
    <_>
      <rects>
        <_>
          7 4 15 18 -1.</_>
        <_>
          7 13 15 9 2.</_></rects>
      <tilted>0</tilted></_>
    <_>
      <rects>
        <_>
          7 6 12 9 -1.</_>
        <_>
          11 6 4 9 3.</_></rects>
      <tilted>0</tilted></_>
    <_>
      <rects>
        <_>
          7 6 24 3 -1.</_>
        <_>
          7 7 24 1 3.</_></rects>
      <tilted>0</tilted></_>
    <_>
      <rects>
        <_>
          7 13 2 10 -1.</_>
        <_>
          7 13 1 5 2.</_>
        <_>
          8 18 1 5 2.</_></rects>
      <tilted>0</tilted></_>
    <_>
      <rects>
        <_>
          8 2 12 8 -1.</_>
        <_>
          8 2 6 4 2.</_>
        <_>
          14 6 6 4 2.</_></rects>
      <tilted>0</tilted></_>
    <_>
      <rects>
        <_>
          8 4 24 13 -1.</_>
        <_>
          16 4 8 13 3.</_></rects>
      <tilted>0</tilted></_>
    <_>
      <rects>
        <_>
          8 14 5 3 -1.</_>
        <_>
          8 15 5 1 3.</_></rects>
      <tilted>0</tilted></_>
    <_>
      <rects>
        <_>
          9 5 14 8 -1.</_>
        <_>
          9 5 7 4 2.</_>
        <_>
          16 9 7 4 2.</_></rects>
      <tilted>0</tilted></_>
    <_>
      <rects>
        <_>
          9 7 18 2 -1.</_>
        <_>
          15 7 6 2 3.</_></rects>
      <tilted>0</tilted></_>
    <_>
      <rects>
        <_>
          9 12 14 5 -1.</_>
        <_>
          16 12 7 5 2.</_></rects>
      <tilted>0</tilted></_>
    <_>
      <rects>
        <_>
          10 0 24 1 -1.</_>
        <_>
          18 0 8 1 3.</_></rects>
      <tilted>0</tilted></_>
    <_>
      <rects>
        <_>
          10 13 21 1 -1.</_>
        <_>
          17 13 7 1 3.</_></rects>
      <tilted>0</tilted></_>
    <_>
      <rects>
        <_>
          11 0 24 22 -1.</_>
        <_>
          11 0 12 11 2.</_>
        <_>
          23 11 12 11 2.</_></rects>
      <tilted>0</tilted></_>
    <_>
      <rects>
        <_>
          11 3 16 12 -1.</_>
        <_>
          11 3 8 6 2.</_>
        <_>
          19 9 8 6 2.</_></rects>
      <tilted>0</tilted></_>
    <_>
      <rects>
        <_>
          12 10 2 2 -1.</_>
        <_>
          13 10 1 2 2.</_></rects>
      <tilted>0</tilted></_>
    <_>
      <rects>
        <_>
          13 9 2 2 -1.</_>
        <_>
          14 9 1 2 2.</_></rects>
      <tilted>0</tilted></_>
    <_>
      <rects>
        <_>
          14 12 21 7 -1.</_>
        <_>
          21 12 7 7 3.</_></rects>
      <tilted>0</tilted></_>
    <_>
      <rects>
        <_>
          14 12 21 10 -1.</_>
        <_>
          21 12 7 10 3.</_></rects>
      <tilted>0</tilted></_>
    <_>
      <rects>
        <_>
          15 9 20 3 -1.</_>
        <_>
          15 10 20 1 3.</_></rects>
      <tilted>0</tilted></_>
    <_>
      <rects>
        <_>
          15 11 2 5 -1.</_>
        <_>
          16 11 1 5 2.</_></rects>
      <tilted>0</tilted></_>
    <_>
      <rects>
        <_>
          16 3 6 2 -1.</_>
        <_>
          18 3 2 2 3.</_></rects>
      <tilted>0</tilted></_>
    <_>
      <rects>
        <_>
          16 11 2 5 -1.</_>
        <_>
          17 11 1 5 2.</_></rects>
      <tilted>0</tilted></_>
    <_>
      <rects>
        <_>
          17 2 18 11 -1.</_>
        <_>
          26 2 9 11 2.</_></rects>
      <tilted>0</tilted></_>
    <_>
      <rects>
        <_>
          17 8 8 10 -1.</_>
        <_>
          17 8 4 5 2.</_>
        <_>
          21 13 4 5 2.</_></rects>
      <tilted>0</tilted></_>
    <_>
      <rects>
        <_>
          17 19 12 2 -1.</_>
        <_>
          17 19 6 1 2.</_>
        <_>
          23 20 6 1 2.</_></rects>
      <tilted>0</tilted></_>
    <_>
      <rects>
        <_>
          17 23 18 1 -1.</_>
        <_>
          23 23 6 1 3.</_></rects>
      <tilted>0</tilted></_>
    <_>
      <rects>
        <_>
          18 8 9 3 -1.</_>
        <_>
          18 9 9 1 3.</_></rects>
      <tilted>0</tilted></_>
    <_>
      <rects>
        <_>
          20 8 2 1 -1.</_>
        <_>
          21 8 1 1 2.</_></rects>
      <tilted>0</tilted></_>
    <_>
      <rects>
        <_>
          20 22 16 2 -1.</_>
        <_>
          20 22 8 1 2.</_>
        <_>
          28 23 8 1 2.</_></rects>
      <tilted>0</tilted></_>
    <_>
      <rects>
        <_>
          22 8 2 1 -1.</_>
        <_>
          23 8 1 1 2.</_></rects>
      <tilted>0</tilted></_>
    <_>
      <rects>
        <_>
          23 9 12 6 -1.</_>
        <_>
          23 11 12 2 3.</_></rects>
      <tilted>0</tilted></_>
    <_>
      <rects>
        <_>
          23 12 12 6 -1.</_>
        <_>
          23 14 12 2 3.</_></rects>
      <tilted>0</tilted></_>
    <_>
      <rects>
        <_>
          24 1 2 2 -1.</_>
        <_>
          24 2 2 1 2.</_></rects>
      <tilted>0</tilted></_>
    <_>
      <rects>
        <_>
          24 16 3 4 -1.</_>
        <_>
          24 18 3 2 2.</_></rects>
      <tilted>0</tilted></_>
    <_>
      <rects>
        <_>
          25 18 3 2 -1.</_>
        <_>
          25 19 3 1 2.</_></rects>
      <tilted>0</tilted></_>
    <_>
      <rects>
        <_>
          25 20 3 4 -1.</_>
        <_>
          26 20 1 4 3.</_></rects>
      <tilted>0</tilted></_>
    <_>
      <rects>
        <_>
          28 11 4 8 -1.</_>
        <_>
          28 11 2 4 2.</_>
        <_>
          30 15 2 4 2.</_></rects>
      <tilted>0</tilted></_>
    <_>
      <rects>
        <_>
          28 18 6 2 -1.</_>
        <_>
          28 19 6 1 2.</_></rects>
      <tilted>0</tilted></_>
    <_>
      <rects>
        <_>
          29 23 3 1 -1.</_>
        <_>
          30 23 1 1 3.</_></rects>
      <tilted>0</tilted></_>
    <_>
      <rects>
        <_>
          35 20 1 4 -1.</_>
        <_>
          35 22 1 2 2.</_></rects>
      <tilted>0</tilted></_></features></cascade>
</opencv_storage>
