<?xml version="1.0"?>
<opencv_storage>
<stage17>
  <maxWeakCount>5</maxWeakCount>
  <stageThreshold>-8.8152015209197998e-01</stageThreshold>
  <weakClassifiers>
    <_>
      <internalNodes>
        0 -1 118108 3.8255870342254639e-02</internalNodes>
      <leafValues>
        -6.0674154758453369e-01 1.5151515603065491e-01</leafValues></_>
    <_>
      <internalNodes>
        0 -1 111536 2.1701654419302940e-02</internalNodes>
      <leafValues>
        -2.6355308294296265e-01 6.5420055389404297e-01</leafValues></_>
    <_>
      <internalNodes>
        0 -1 5 4.5150378718972206e-04</internalNodes>
      <leafValues>
        1.8843711912631989e-01 -8.9382493495941162e-01</leafValues></_>
    <_>
      <internalNodes>
        0 -1 71355 -8.8428638875484467e-02</internalNodes>
      <leafValues>
        -7.1704494953155518e-01 2.4461784958839417e-01</leafValues></_>
    <_>
      <internalNodes>
        0 -1 154408 -2.3920587409520522e-05</internalNodes>
      <leafValues>
        4.2120987176895142e-01 -4.0037128329277039e-01</leafValues></_></weakClassifiers></stage17>
</opencv_storage>
