<?xml version="1.0"?>
<opencv_storage>
<stage7>
  <maxWeakCount>7</maxWeakCount>
  <stageThreshold>-6.3785076141357422e-01</stageThreshold>
  <weakClassifiers>
    <_>
      <internalNodes>
        0 -1 102723 -1.2405639514327049e-02</internalNodes>
      <leafValues>
        4.3589743971824646e-01 -5.2586209774017334e-01</leafValues></_>
    <_>
      <internalNodes>
        0 -1 94786 -2.1809238940477371e-02</internalNodes>
      <leafValues>
        7.5707316398620605e-01 -2.4675500392913818e-01</leafValues></_>
    <_>
      <internalNodes>
        0 -1 32739 -1.0756240785121918e-01</internalNodes>
      <leafValues>
        6.2952691316604614e-01 -3.1355440616607666e-01</leafValues></_>
    <_>
      <internalNodes>
        0 -1 1105 4.6855511027388275e-04</internalNodes>
      <leafValues>
        2.2220356762409210e-01 -9.2176479101181030e-01</leafValues></_>
    <_>
      <internalNodes>
        0 -1 102269 -5.8589139953255653e-03</internalNodes>
      <leafValues>
        6.6584622859954834e-01 -3.0725184082984924e-01</leafValues></_>
    <_>
      <internalNodes>
        0 -1 94273 1.3072242727503181e-03</internalNodes>
      <leafValues>
        -2.0694002509117126e-01 7.5999504327774048e-01</leafValues></_>
    <_>
      <internalNodes>
        0 -1 65663 -2.2985581308603287e-03</internalNodes>
      <leafValues>
        8.4325176477432251e-01 -2.0277228951454163e-01</leafValues></_></weakClassifiers></stage7>
</opencv_storage>
