<?xml version="1.0"?>
<opencv_storage>
<stage13>
  <maxWeakCount>5</maxWeakCount>
  <stageThreshold>-7.8307157754898071e-01</stageThreshold>
  <weakClassifiers>
    <_>
      <internalNodes>
        0 -1 67674 4.2649704962968826e-02</internalNodes>
      <leafValues>
        -5.3488373756408691e-01 2.8421053290367126e-01</leafValues></_>
    <_>
      <internalNodes>
        0 -1 3 1.9726174650713801e-04</internalNodes>
      <leafValues>
        1.6156296432018280e-01 -7.8461295366287231e-01</leafValues></_>
    <_>
      <internalNodes>
        0 -1 144006 7.4691779445856810e-04</internalNodes>
      <leafValues>
        1.2141575664281845e-01 -9.3234962224960327e-01</leafValues></_>
    <_>
      <internalNodes>
        0 -1 96814 -2.4692919105291367e-03</internalNodes>
      <leafValues>
        5.2858453989028931e-01 -3.1048160791397095e-01</leafValues></_>
    <_>
      <internalNodes>
        0 -1 117975 -1.5969092492014170e-03</internalNodes>
      <leafValues>
        7.5601625442504883e-01 -2.2068497538566589e-01</leafValues></_></weakClassifiers></stage13>
</opencv_storage>
