<?xml version="1.0"?>
<opencv_storage>
<stage18>
  <maxWeakCount>6</maxWeakCount>
  <stageThreshold>-7.5498133897781372e-01</stageThreshold>
  <weakClassifiers>
    <_>
      <internalNodes>
        0 -1 119222 -3.2407385297119617e-03</internalNodes>
      <leafValues>
        3.7142857909202576e-01 -4.7499999403953552e-01</leafValues></_>
    <_>
      <internalNodes>
        0 -1 1104 -2.7616537408903241e-04</internalNodes>
      <leafValues>
        -8.7595385313034058e-01 1.5177033841609955e-01</leafValues></_>
    <_>
      <internalNodes>
        0 -1 151981 2.0819802302867174e-03</internalNodes>
      <leafValues>
        1.4711725711822510e-01 -8.2535457611083984e-01</leafValues></_>
    <_>
      <internalNodes>
        0 -1 103270 5.5971933761611581e-04</internalNodes>
      <leafValues>
        -3.8489899039268494e-01 4.3126460909843445e-01</leafValues></_>
    <_>
      <internalNodes>
        0 -1 110596 -8.0558005720376968e-04</internalNodes>
      <leafValues>
        6.2284976243972778e-01 -2.5634887814521790e-01</leafValues></_>
    <_>
      <internalNodes>
        0 -1 150044 -2.4282641708850861e-02</internalNodes>
      <leafValues>
        -7.5378465652465820e-01 2.5965085625648499e-01</leafValues></_></weakClassifiers></stage18>
</opencv_storage>
