<?xml version="1.0"?>
<opencv_storage>
<stage9>
  <maxWeakCount>10</maxWeakCount>
  <stageThreshold>-1.3134344816207886e+00</stageThreshold>
  <weakClassifiers>
    <_>
      <internalNodes>
        0 -1 29048 1.6213911771774292e-01</internalNodes>
      <leafValues>
        -7.2670805454254150e-01 1.7204301059246063e-01</leafValues></_>
    <_>
      <internalNodes>
        0 -1 58512 2.9580099508166313e-03</internalNodes>
      <leafValues>
        -2.9038506746292114e-01 7.3797142505645752e-01</leafValues></_>
    <_>
      <internalNodes>
        0 -1 13295 -1.0565930046141148e-02</internalNodes>
      <leafValues>
        7.6669055223464966e-01 -2.0518879592418671e-01</leafValues></_>
    <_>
      <internalNodes>
        0 -1 87216 -6.4297434873878956e-03</internalNodes>
      <leafValues>
        -7.4159926176071167e-01 2.1743284165859222e-01</leafValues></_>
    <_>
      <internalNodes>
        0 -1 56591 4.6525849029421806e-03</internalNodes>
      <leafValues>
        -2.1823126077651978e-01 7.2388195991516113e-01</leafValues></_>
    <_>
      <internalNodes>
        0 -1 118464 -2.1280799061059952e-02</internalNodes>
      <leafValues>
        4.9456247687339783e-01 -3.1550601124763489e-01</leafValues></_>
    <_>
      <internalNodes>
        0 -1 74721 7.1603059768676758e-03</internalNodes>
      <leafValues>
        2.8488099575042725e-01 -6.1806964874267578e-01</leafValues></_>
    <_>
      <internalNodes>
        0 -1 128022 3.7015578709542751e-03</internalNodes>
      <leafValues>
        -2.9615348577499390e-01 5.4727375507354736e-01</leafValues></_>
    <_>
      <internalNodes>
        0 -1 37979 -6.1693526804447174e-03</internalNodes>
      <leafValues>
        -8.0443203449249268e-01 1.9962744414806366e-01</leafValues></_>
    <_>
      <internalNodes>
        0 -1 37979 1.6502976417541504e-02</internalNodes>
      <leafValues>
        2.3078791797161102e-01 -6.3614553213119507e-01</leafValues></_></weakClassifiers></stage9>
</opencv_storage>
