<?xml version="1.0"?>
<opencv_storage>
<stage18>
  <maxWeakCount>7</maxWeakCount>
  <stageThreshold>-9.3761467933654785e-01</stageThreshold>
  <weakClassifiers>
    <_>
      <internalNodes>
        0 -1 26208 7.0556718856096268e-03</internalNodes>
      <leafValues>
        -5.0655019283294678e-01 6.0000002384185791e-01</leafValues></_>
    <_>
      <internalNodes>
        0 -1 13369 1.5880053862929344e-02</internalNodes>
      <leafValues>
        -3.0806171894073486e-01 5.2508950233459473e-01</leafValues></_>
    <_>
      <internalNodes>
        0 -1 96446 4.2576633859425783e-04</internalNodes>
      <leafValues>
        -4.8190352320671082e-01 2.8542593121528625e-01</leafValues></_>
    <_>
      <internalNodes>
        0 -1 100502 2.2137866914272308e-01</internalNodes>
      <leafValues>
        1.2502129375934601e-01 -8.6557614803314209e-01</leafValues></_>
    <_>
      <internalNodes>
        0 -1 13872 2.6172432117164135e-03</internalNodes>
      <leafValues>
        3.1806585192680359e-01 -4.4215217232704163e-01</leafValues></_>
    <_>
      <internalNodes>
        0 -1 137575 9.5327367307618260e-04</internalNodes>
      <leafValues>
        -2.4989905953407288e-01 5.0047868490219116e-01</leafValues></_>
    <_>
      <internalNodes>
        0 -1 71601 5.0669806078076363e-03</internalNodes>
      <leafValues>
        -3.4919396042823792e-01 3.8898071646690369e-01</leafValues></_></weakClassifiers></stage18>
</opencv_storage>
